FANN_FLO_2.1
num_layers=3
learning_rate=0.700000
connection_rate=1.000000
network_type=0
learning_momentum=0.000000
training_algorithm=2
train_error_function=1
train_stop_function=0
cascade_output_change_fraction=0.010000
quickprop_decay=-0.000100
quickprop_mu=1.750000
rprop_increase_factor=1.200000
rprop_decrease_factor=0.500000
rprop_delta_min=0.000000
rprop_delta_max=50.000000
rprop_delta_zero=0.100000
cascade_output_stagnation_epochs=12
cascade_candidate_change_fraction=0.010000
cascade_candidate_stagnation_epochs=12
cascade_max_out_epochs=150
cascade_min_out_epochs=50
cascade_max_cand_epochs=150
cascade_min_cand_epochs=50
cascade_num_candidate_groups=2
bit_fail_limit=3.49999994039535520000e-001
cascade_candidate_limit=1.00000000000000000000e+003
cascade_weight_multiplier=4.00000005960464480000e-001
cascade_activation_functions_count=10
cascade_activation_functions=3 5 7 8 10 11 14 15 16 17 
cascade_activation_steepnesses_count=4
cascade_activation_steepnesses=2.50000000000000000000e-001 5.00000000000000000000e-001 7.50000000000000000000e-001 1.00000000000000000000e+000 
layer_sizes=281 18 2 
scale_included=0
neurons (num_inputs, activation_function, activation_steepness)=(0, 0, 0.00000000000000000000e+000) (0, 0, 0.00000000000000000000e+000) (0, 0, 0.00000000000000000000e+000) (0, 0, 0.00000000000000000000e+000) (0, 0, 0.00000000000000000000e+000) (0, 0, 0.00000000000000000000e+000) (0, 0, 0.00000000000000000000e+000) (0, 0, 0.00000000000000000000e+000) (0, 0, 0.00000000000000000000e+000) (0, 0, 0.00000000000000000000e+000) (0, 0, 0.00000000000000000000e+000) (0, 0, 0.00000000000000000000e+000) (0, 0, 0.00000000000000000000e+000) (0, 0, 0.00000000000000000000e+000) (0, 0, 0.00000000000000000000e+000) (0, 0, 0.00000000000000000000e+000) (0, 0, 0.00000000000000000000e+000) (0, 0, 0.00000000000000000000e+000) (0, 0, 0.00000000000000000000e+000) (0, 0, 0.00000000000000000000e+000) (0, 0, 0.00000000000000000000e+000) (0, 0, 0.00000000000000000000e+000) (0, 0, 0.00000000000000000000e+000) (0, 0, 0.00000000000000000000e+000) (0, 0, 0.00000000000000000000e+000) (0, 0, 0.00000000000000000000e+000) (0, 0, 0.00000000000000000000e+000) (0, 0, 0.00000000000000000000e+000) (0, 0, 0.00000000000000000000e+000) (0, 0, 0.00000000000000000000e+000) (0, 0, 0.00000000000000000000e+000) (0, 0, 0.00000000000000000000e+000) (0, 0, 0.00000000000000000000e+000) (0, 0, 0.00000000000000000000e+000) (0, 0, 0.00000000000000000000e+000) (0, 0, 0.00000000000000000000e+000) (0, 0, 0.00000000000000000000e+000) (0, 0, 0.00000000000000000000e+000) (0, 0, 0.00000000000000000000e+000) (0, 0, 0.00000000000000000000e+000) (0, 0, 0.00000000000000000000e+000) (0, 0, 0.00000000000000000000e+000) (0, 0, 0.00000000000000000000e+000) (0, 0, 0.00000000000000000000e+000) (0, 0, 0.00000000000000000000e+000) (0, 0, 0.00000000000000000000e+000) (0, 0, 0.00000000000000000000e+000) (0, 0, 0.00000000000000000000e+000) (0, 0, 0.00000000000000000000e+000) (0, 0, 0.00000000000000000000e+000) (0, 0, 0.00000000000000000000e+000) (0, 0, 0.00000000000000000000e+000) (0, 0, 0.00000000000000000000e+000) (0, 0, 0.00000000000000000000e+000) (0, 0, 0.00000000000000000000e+000) (0, 0, 0.00000000000000000000e+000) (0, 0, 0.00000000000000000000e+000) (0, 0, 0.00000000000000000000e+000) (0, 0, 0.00000000000000000000e+000) (0, 0, 0.00000000000000000000e+000) (0, 0, 0.00000000000000000000e+000) (0, 0, 0.00000000000000000000e+000) (0, 0, 0.00000000000000000000e+000) (0, 0, 0.00000000000000000000e+000) (0, 0, 0.00000000000000000000e+000) (0, 0, 0.00000000000000000000e+000) (0, 0, 0.00000000000000000000e+000) (0, 0, 0.00000000000000000000e+000) (0, 0, 0.00000000000000000000e+000) (0, 0, 0.00000000000000000000e+000) (0, 0, 0.00000000000000000000e+000) (0, 0, 0.00000000000000000000e+000) (0, 0, 0.00000000000000000000e+000) (0, 0, 0.00000000000000000000e+000) (0, 0, 0.00000000000000000000e+000) (0, 0, 0.00000000000000000000e+000) (0, 0, 0.00000000000000000000e+000) (0, 0, 0.00000000000000000000e+000) (0, 0, 0.00000000000000000000e+000) (0, 0, 0.00000000000000000000e+000) (0, 0, 0.00000000000000000000e+000) (0, 0, 0.00000000000000000000e+000) (0, 0, 0.00000000000000000000e+000) (0, 0, 0.00000000000000000000e+000) (0, 0, 0.00000000000000000000e+000) (0, 0, 0.00000000000000000000e+000) (0, 0, 0.00000000000000000000e+000) (0, 0, 0.00000000000000000000e+000) (0, 0, 0.00000000000000000000e+000) (0, 0, 0.00000000000000000000e+000) (0, 0, 0.00000000000000000000e+000) (0, 0, 0.00000000000000000000e+000) (0, 0, 0.00000000000000000000e+000) (0, 0, 0.00000000000000000000e+000) (0, 0, 0.00000000000000000000e+000) (0, 0, 0.00000000000000000000e+000) (0, 0, 0.00000000000000000000e+000) (0, 0, 0.00000000000000000000e+000) (0, 0, 0.00000000000000000000e+000) (0, 0, 0.00000000000000000000e+000) (0, 0, 0.00000000000000000000e+000) (0, 0, 0.00000000000000000000e+000) (0, 0, 0.00000000000000000000e+000) (0, 0, 0.00000000000000000000e+000) (0, 0, 0.00000000000000000000e+000) (0, 0, 0.00000000000000000000e+000) (0, 0, 0.00000000000000000000e+000) (0, 0, 0.00000000000000000000e+000) (0, 0, 0.00000000000000000000e+000) (0, 0, 0.00000000000000000000e+000) (0, 0, 0.00000000000000000000e+000) (0, 0, 0.00000000000000000000e+000) (0, 0, 0.00000000000000000000e+000) (0, 0, 0.00000000000000000000e+000) (0, 0, 0.00000000000000000000e+000) (0, 0, 0.00000000000000000000e+000) (0, 0, 0.00000000000000000000e+000) (0, 0, 0.00000000000000000000e+000) (0, 0, 0.00000000000000000000e+000) (0, 0, 0.00000000000000000000e+000) (0, 0, 0.00000000000000000000e+000) (0, 0, 0.00000000000000000000e+000) (0, 0, 0.00000000000000000000e+000) (0, 0, 0.00000000000000000000e+000) (0, 0, 0.00000000000000000000e+000) (0, 0, 0.00000000000000000000e+000) (0, 0, 0.00000000000000000000e+000) (0, 0, 0.00000000000000000000e+000) (0, 0, 0.00000000000000000000e+000) (0, 0, 0.00000000000000000000e+000) (0, 0, 0.00000000000000000000e+000) (0, 0, 0.00000000000000000000e+000) (0, 0, 0.00000000000000000000e+000) (0, 0, 0.00000000000000000000e+000) (0, 0, 0.00000000000000000000e+000) (0, 0, 0.00000000000000000000e+000) (0, 0, 0.00000000000000000000e+000) (0, 0, 0.00000000000000000000e+000) (0, 0, 0.00000000000000000000e+000) (0, 0, 0.00000000000000000000e+000) (0, 0, 0.00000000000000000000e+000) (0, 0, 0.00000000000000000000e+000) (0, 0, 0.00000000000000000000e+000) (0, 0, 0.00000000000000000000e+000) (0, 0, 0.00000000000000000000e+000) (0, 0, 0.00000000000000000000e+000) (0, 0, 0.00000000000000000000e+000) (0, 0, 0.00000000000000000000e+000) (0, 0, 0.00000000000000000000e+000) (0, 0, 0.00000000000000000000e+000) (0, 0, 0.00000000000000000000e+000) (0, 0, 0.00000000000000000000e+000) (0, 0, 0.00000000000000000000e+000) (0, 0, 0.00000000000000000000e+000) (0, 0, 0.00000000000000000000e+000) (0, 0, 0.00000000000000000000e+000) (0, 0, 0.00000000000000000000e+000) (0, 0, 0.00000000000000000000e+000) (0, 0, 0.00000000000000000000e+000) (0, 0, 0.00000000000000000000e+000) (0, 0, 0.00000000000000000000e+000) (0, 0, 0.00000000000000000000e+000) (0, 0, 0.00000000000000000000e+000) (0, 0, 0.00000000000000000000e+000) (0, 0, 0.00000000000000000000e+000) (0, 0, 0.00000000000000000000e+000) (0, 0, 0.00000000000000000000e+000) (0, 0, 0.00000000000000000000e+000) (0, 0, 0.00000000000000000000e+000) (0, 0, 0.00000000000000000000e+000) (0, 0, 0.00000000000000000000e+000) (0, 0, 0.00000000000000000000e+000) (0, 0, 0.00000000000000000000e+000) (0, 0, 0.00000000000000000000e+000) (0, 0, 0.00000000000000000000e+000) (0, 0, 0.00000000000000000000e+000) (0, 0, 0.00000000000000000000e+000) (0, 0, 0.00000000000000000000e+000) (0, 0, 0.00000000000000000000e+000) (0, 0, 0.00000000000000000000e+000) (0, 0, 0.00000000000000000000e+000) (0, 0, 0.00000000000000000000e+000) (0, 0, 0.00000000000000000000e+000) (0, 0, 0.00000000000000000000e+000) (0, 0, 0.00000000000000000000e+000) (0, 0, 0.00000000000000000000e+000) (0, 0, 0.00000000000000000000e+000) (0, 0, 0.00000000000000000000e+000) (0, 0, 0.00000000000000000000e+000) (0, 0, 0.00000000000000000000e+000) (0, 0, 0.00000000000000000000e+000) (0, 0, 0.00000000000000000000e+000) (0, 0, 0.00000000000000000000e+000) (0, 0, 0.00000000000000000000e+000) (0, 0, 0.00000000000000000000e+000) (0, 0, 0.00000000000000000000e+000) (0, 0, 0.00000000000000000000e+000) (0, 0, 0.00000000000000000000e+000) (0, 0, 0.00000000000000000000e+000) (0, 0, 0.00000000000000000000e+000) (0, 0, 0.00000000000000000000e+000) (0, 0, 0.00000000000000000000e+000) (0, 0, 0.00000000000000000000e+000) (0, 0, 0.00000000000000000000e+000) (0, 0, 0.00000000000000000000e+000) (0, 0, 0.00000000000000000000e+000) (0, 0, 0.00000000000000000000e+000) (0, 0, 0.00000000000000000000e+000) (0, 0, 0.00000000000000000000e+000) (0, 0, 0.00000000000000000000e+000) (0, 0, 0.00000000000000000000e+000) (0, 0, 0.00000000000000000000e+000) (0, 0, 0.00000000000000000000e+000) (0, 0, 0.00000000000000000000e+000) (0, 0, 0.00000000000000000000e+000) (0, 0, 0.00000000000000000000e+000) (0, 0, 0.00000000000000000000e+000) (0, 0, 0.00000000000000000000e+000) (0, 0, 0.00000000000000000000e+000) (0, 0, 0.00000000000000000000e+000) (0, 0, 0.00000000000000000000e+000) (0, 0, 0.00000000000000000000e+000) (0, 0, 0.00000000000000000000e+000) (0, 0, 0.00000000000000000000e+000) (0, 0, 0.00000000000000000000e+000) (0, 0, 0.00000000000000000000e+000) (0, 0, 0.00000000000000000000e+000) (0, 0, 0.00000000000000000000e+000) (0, 0, 0.00000000000000000000e+000) (0, 0, 0.00000000000000000000e+000) (0, 0, 0.00000000000000000000e+000) (0, 0, 0.00000000000000000000e+000) (0, 0, 0.00000000000000000000e+000) (0, 0, 0.00000000000000000000e+000) (0, 0, 0.00000000000000000000e+000) (0, 0, 0.00000000000000000000e+000) (0, 0, 0.00000000000000000000e+000) (0, 0, 0.00000000000000000000e+000) (0, 0, 0.00000000000000000000e+000) (0, 0, 0.00000000000000000000e+000) (0, 0, 0.00000000000000000000e+000) (0, 0, 0.00000000000000000000e+000) (0, 0, 0.00000000000000000000e+000) (0, 0, 0.00000000000000000000e+000) (0, 0, 0.00000000000000000000e+000) (0, 0, 0.00000000000000000000e+000) (0, 0, 0.00000000000000000000e+000) (0, 0, 0.00000000000000000000e+000) (0, 0, 0.00000000000000000000e+000) (0, 0, 0.00000000000000000000e+000) (0, 0, 0.00000000000000000000e+000) (0, 0, 0.00000000000000000000e+000) (0, 0, 0.00000000000000000000e+000) (0, 0, 0.00000000000000000000e+000) (0, 0, 0.00000000000000000000e+000) (0, 0, 0.00000000000000000000e+000) (0, 0, 0.00000000000000000000e+000) (0, 0, 0.00000000000000000000e+000) (0, 0, 0.00000000000000000000e+000) (0, 0, 0.00000000000000000000e+000) (0, 0, 0.00000000000000000000e+000) (0, 0, 0.00000000000000000000e+000) (0, 0, 0.00000000000000000000e+000) (0, 0, 0.00000000000000000000e+000) (0, 0, 0.00000000000000000000e+000) (0, 0, 0.00000000000000000000e+000) (0, 0, 0.00000000000000000000e+000) (0, 0, 0.00000000000000000000e+000) (0, 0, 0.00000000000000000000e+000) (0, 0, 0.00000000000000000000e+000) (0, 0, 0.00000000000000000000e+000) (0, 0, 0.00000000000000000000e+000) (0, 0, 0.00000000000000000000e+000) (0, 0, 0.00000000000000000000e+000) (0, 0, 0.00000000000000000000e+000) (0, 0, 0.00000000000000000000e+000) (0, 0, 0.00000000000000000000e+000) (0, 0, 0.00000000000000000000e+000) (0, 0, 0.00000000000000000000e+000) (0, 0, 0.00000000000000000000e+000) (0, 0, 0.00000000000000000000e+000) (281, 3, 5.00000000000000000000e-001) (281, 3, 5.00000000000000000000e-001) (281, 3, 5.00000000000000000000e-001) (281, 3, 5.00000000000000000000e-001) (281, 3, 5.00000000000000000000e-001) (281, 3, 5.00000000000000000000e-001) (281, 3, 5.00000000000000000000e-001) (281, 3, 5.00000000000000000000e-001) (281, 3, 5.00000000000000000000e-001) (281, 3, 5.00000000000000000000e-001) (281, 3, 5.00000000000000000000e-001) (281, 3, 5.00000000000000000000e-001) (281, 3, 5.00000000000000000000e-001) (281, 3, 5.00000000000000000000e-001) (281, 3, 5.00000000000000000000e-001) (281, 3, 5.00000000000000000000e-001) (281, 3, 5.00000000000000000000e-001) (0, 3, 5.00000000000000000000e-001) (18, 3, 5.00000000000000000000e-001) (0, 3, 5.00000000000000000000e-001) 
connections (connected_to_neuron, weight)=(0, 2.16043762207031250000e+002) (1, -6.11233711242675780000e-001) (2, -1.50000000000000000000e+003) (3, -4.43914978027343750000e+002) (4, -1.11086962890625000000e+003) (5, -1.50000000000000000000e+003) (6, 6.56783447265625000000e+002) (7, 5.81358313560485840000e-001) (8, -1.23867102050781250000e+003) (9, -5.13805725097656250000e+002) (10, -1.50000000000000000000e+003) (11, -9.89106628417968750000e+002) (12, -1.49500024414062500000e+003) (13, -1.42619982910156250000e+003) (14, -1.41735522460937500000e+003) (15, -7.48638061523437500000e+002) (16, 1.50000000000000000000e+003) (17, 2.90832481384277340000e+001) (18, 1.50000000000000000000e+003) (19, 1.50000000000000000000e+003) (20, 6.79234542846679690000e+001) (21, 1.49995166015625000000e+003) (22, -1.50000000000000000000e+003) (23, 8.93775207519531250000e+002) (24, -1.50000000000000000000e+003) (25, 1.50000000000000000000e+003) (26, -5.33817565917968750000e+002) (27, 4.25979370117187500000e+002) (28, -2.13123989105224610000e+001) (29, -1.33677764892578120000e+002) (30, -9.07056030273437500000e+002) (31, 8.38652420043945310000e+000) (32, 1.02351690673828120000e+003) (33, 3.80438720703125000000e+002) (34, -4.06096069335937500000e+002) (35, -1.63345694541931150000e+000) (36, -7.29310810565948490000e-002) (37, -1.35898181152343750000e+003) (38, 7.24318981170654300000e+000) (39, 1.50000000000000000000e+003) (40, 1.44230871582031250000e+003) (41, 1.06769477844238280000e+002) (42, -1.49826513671875000000e+003) (43, 9.85672424316406250000e+002) (44, 1.50000000000000000000e+003) (45, 1.01358060836791990000e+001) (46, -9.95111816406250000000e+002) (47, -2.42427974939346310000e-001) (48, 1.50000000000000000000e+003) (49, 1.50000000000000000000e+003) (50, 8.04575561523437500000e+002) (51, 1.50000000000000000000e+003) (52, 6.74711608886718750000e+002) (53, -8.33586608886718750000e+002) (54, -1.28842147827148440000e+002) (55, 4.38076171875000000000e+001) (56, -3.33959841728210450000e+000) (57, -1.49991809082031250000e+003) (58, 9.06171023845672610000e-001) (59, 1.17406042480468750000e+003) (60, -8.31550598144531250000e+001) (61, -1.01102069091796870000e+003) (62, -1.49964709472656250000e+003) (63, 1.50000000000000000000e+003) (64, -2.50944610595703120000e+002) (65, 1.46754394531250000000e+003) (66, -1.47149584960937500000e+003) (67, 3.83155670166015620000e+002) (68, 2.14638259887695310000e+002) (69, 1.48220166015625000000e+003) (70, 1.50000000000000000000e+003) (71, 3.88031188964843750000e+002) (72, -1.38883471679687500000e+003) (73, -6.44473419189453130000e+001) (74, -8.71719604492187500000e+002) (75, 3.36080718994140620000e+002) (76, -1.49889257812500000000e+003) (77, -5.70302856445312500000e+002) (78, -1.43489050292968750000e+003) (79, -1.50000000000000000000e+003) (80, -1.49716418457031250000e+003) (81, 2.15362976074218750000e+002) (82, -7.05108215332031250000e+002) (83, -4.85750274658203120000e+002) (84, -1.43694116210937500000e+003) (85, -1.50000000000000000000e+003) (86, 3.96897979736328120000e+002) (87, 3.28459686279296870000e+002) (88, -8.29069946289062500000e+002) (89, -1.49593273925781250000e+003) (90, -1.26442822265625000000e+003) (91, -1.20374069213867190000e+002) (92, -1.29673486328125000000e+003) (93, -7.83803344726562500000e+002) (94, -7.46977416992187500000e+002) (95, -4.67329986572265620000e+002) (96, -2.72155426025390620000e+002) (97, 4.52333183288574220000e+001) (98, 1.49993627929687500000e+003) (99, -1.49197509765625000000e+003) (100, -1.49989440917968750000e+003) (101, -1.45841076660156250000e+003) (102, -9.94422912597656250000e+002) (103, 1.49964660644531250000e+003) (104, 1.49974877929687500000e+003) (105, 2.79636962890625000000e+002) (106, 1.49966040039062500000e+003) (107, -1.50000000000000000000e+003) (108, 1.50000000000000000000e+003) (109, 8.82483520507812500000e+002) (110, -6.60852905273437500000e+002) (111, 1.49820751953125000000e+003) (112, 1.45694384765625000000e+003) (113, 1.43689208984375000000e+003) (114, 1.49977758789062500000e+003) (115, 1.50000000000000000000e+003) (116, 1.50000000000000000000e+003) (117, -1.31617346191406250000e+003) (118, -1.50000000000000000000e+003) (119, -1.50000000000000000000e+003) (120, -5.11451110839843750000e+002) (121, -1.47289855957031250000e+003) (122, 1.50000000000000000000e+003) (123, 1.50000000000000000000e+003) (124, 1.49973352050781250000e+003) (125, 1.49993066406250000000e+003) (126, 3.89462921142578120000e+002) (127, 1.50000000000000000000e+003) (128, 1.69394775390625000000e+002) (129, 4.26561401367187500000e+002) (130, 7.23317749023437500000e+002) (131, 2.11990982055664060000e+002) (132, 2.19239292144775390000e+001) (133, 1.50000000000000000000e+003) (134, 1.50000000000000000000e+003) (135, 1.50000000000000000000e+003) (136, -6.73271667480468750000e+002) (137, 8.80044067382812500000e+002) (138, 1.50000000000000000000e+003) (139, -2.51492691040039060000e+002) (140, 1.49799523925781250000e+003) (141, -1.42219421386718750000e+003) (142, -3.09473602294921870000e+002) (143, 1.50000000000000000000e+003) (144, -5.27159606933593750000e+002) (145, 1.36720983886718750000e+003) (146, 1.50000000000000000000e+003) (147, 1.49536987304687500000e+003) (148, 1.50000000000000000000e+003) (149, 1.46593176269531250000e+003) (150, -3.71316070556640620000e+002) (151, 1.36652929687500000000e+003) (152, 1.50000000000000000000e+003) (153, 1.49566669464111330000e+001) (154, 1.50000000000000000000e+003) (155, 1.50000000000000000000e+003) (156, 1.50000000000000000000e+003) (157, -5.63180297851562500000e+002) (158, -1.50000000000000000000e+003) (159, 1.42070666503906250000e+003) (160, 1.50000000000000000000e+003) (161, -1.20940711975097660000e+002) (162, -1.50000000000000000000e+003) (163, -1.50000000000000000000e+003) (164, -1.50000000000000000000e+003) (165, -1.50000000000000000000e+003) (166, -1.50000000000000000000e+003) (167, -1.49590783691406250000e+003) (168, -8.73534606933593750000e+002) (169, -8.86320678710937500000e+002) (170, -3.11319793701171870000e+002) (171, 9.38468200683593750000e+002) (172, -1.26529797363281250000e+003) (173, -1.50000000000000000000e+003) (174, -1.50000000000000000000e+003) (175, -1.50000000000000000000e+003) (176, -1.50000000000000000000e+003) (177, -1.49636413574218750000e+003) (178, -2.02670867919921870000e+002) (179, 1.50000000000000000000e+003) (180, 1.50000000000000000000e+003) (181, 9.27052307128906250000e+002) (182, -1.50000000000000000000e+003) (183, -1.50000000000000000000e+003) (184, -1.50000000000000000000e+003) (185, -1.50000000000000000000e+003) (186, -1.50000000000000000000e+003) (187, -1.50000000000000000000e+003) (188, -1.50000000000000000000e+003) (189, -1.50000000000000000000e+003) (190, -1.50000000000000000000e+003) (191, -1.46325793457031250000e+003) (192, -1.50000000000000000000e+003) (193, -1.50000000000000000000e+003) (194, -1.49376599121093750000e+003) (195, -1.49663183593750000000e+003) (196, -1.50000000000000000000e+003) (197, -1.50000000000000000000e+003) (198, 1.50000000000000000000e+003) (199, 1.50000000000000000000e+003) (200, 1.50000000000000000000e+003) (201, 1.50000000000000000000e+003) (202, 1.50000000000000000000e+003) (203, 1.50000000000000000000e+003) (204, 3.13211273193359370000e+002) (205, 9.91462158203125000000e+002) (206, 1.48905957031250000000e+003) (207, 1.50000000000000000000e+003) (208, 1.37783642578125000000e+003) (209, 1.45452563476562500000e+003) (210, -8.42357604980468750000e+002) (211, 1.47913854980468750000e+003) (212, -1.46708081054687500000e+003) (213, -2.23814422607421870000e+002) (214, -1.50000000000000000000e+003) (215, -1.50000000000000000000e+003) (216, 1.50000000000000000000e+003) (217, 1.49389672851562500000e+003) (218, 1.50000000000000000000e+003) (219, 1.50000000000000000000e+003) (220, 1.50000000000000000000e+003) (221, 2.18919738769531250000e+002) (222, -1.18240625000000000000e+003) (223, -1.24967102050781250000e+002) (224, -2.14296539306640620000e+002) (225, 1.40486120605468750000e+003) (226, -1.44425195312500000000e+003) (227, -1.46372753906250000000e+003) (228, -1.49468737792968750000e+003) (229, -1.49782482910156250000e+003) (230, -1.34398950195312500000e+003) (231, -1.49764672851562500000e+003) (232, 4.25668945312500000000e+001) (233, -1.49940197753906250000e+003) (234, -9.66788253784179690000e+001) (235, -1.48888037109375000000e+003) (236, 1.50000000000000000000e+003) (237, 9.70070838928222660000e-001) (238, 1.50000000000000000000e+003) (239, 1.50000000000000000000e+003) (240, 1.50000000000000000000e+003) (241, 1.50000000000000000000e+003) (242, 9.03655151367187500000e+002) (243, 1.50000000000000000000e+003) (244, -3.99950447082519530000e+001) (245, -1.49788232421875000000e+003) (246, -1.49966979980468750000e+003) (247, -1.06113317871093750000e+003) (248, -1.34301428222656250000e+003) (249, -5.71534240722656250000e+002) (250, -1.50000000000000000000e+003) (251, -1.49286511230468750000e+003) (252, -1.50000000000000000000e+003) (253, -6.24853393554687500000e+002) (254, 9.91003784179687500000e+002) (255, -6.55633850097656250000e+001) (256, 1.50000000000000000000e+003) (257, 1.46211645507812500000e+003) (258, 1.50000000000000000000e+003) (259, 1.50000000000000000000e+003) (260, 7.91173875331878660000e-001) (261, 1.50000000000000000000e+003) (262, 1.50000000000000000000e+003) (263, 1.50000000000000000000e+003) (264, 1.50000000000000000000e+003) (265, 1.50000000000000000000e+003) (266, 1.50000000000000000000e+003) (267, 1.50000000000000000000e+003) (268, 1.50000000000000000000e+003) (269, 7.66070556640625000000e+002) (270, -3.16158657073974610000e+001) (271, 6.49498443603515630000e+001) (272, 1.50000000000000000000e+003) (273, 1.50000000000000000000e+003) (274, 1.50000000000000000000e+003) (275, 1.50000000000000000000e+003) (276, 1.50000000000000000000e+003) (277, -8.25118541717529300000e-001) (278, 1.59001779556274410000e+000) (279, 2.57293820381164550000e-001) (280, -4.95517194271087650000e-001) (0, 2.16910659790039060000e+002) (1, -3.58683735132217410000e-001) (2, -1.50000000000000000000e+003) (3, -4.44079345703125000000e+002) (4, -1.11074475097656250000e+003) (5, -1.50000000000000000000e+003) (6, 6.56890991210937500000e+002) (7, 3.17120909690856930000e-001) (8, -1.24522045898437500000e+003) (9, -5.13974426269531250000e+002) (10, -1.50000000000000000000e+003) (11, -9.88709350585937500000e+002) (12, -1.49500024414062500000e+003) (13, -1.42619982910156250000e+003) (14, -1.41735522460937500000e+003) (15, -7.47299560546875000000e+002) (16, 1.50000000000000000000e+003) (17, 2.91048431396484380000e+001) (18, 1.50000000000000000000e+003) (19, 1.50000000000000000000e+003) (20, 6.17377090454101560000e+001) (21, 1.49995166015625000000e+003) (22, -1.50000000000000000000e+003) (23, 8.93775207519531250000e+002) (24, -1.50000000000000000000e+003) (25, 1.50000000000000000000e+003) (26, -5.33935607910156250000e+002) (27, 4.26223449707031250000e+002) (28, -2.13851642608642580000e+001) (29, -1.33690826416015620000e+002) (30, -9.05999694824218750000e+002) (31, 8.58389854431152340000e+000) (32, 1.02404345703125000000e+003) (33, 3.80520935058593750000e+002) (34, -4.05193969726562500000e+002) (35, -1.51681852340698240000e+000) (36, 4.87729907035827640000e-002) (37, -1.35898181152343750000e+003) (38, 7.54544258117675780000e+000) (39, 1.50000000000000000000e+003) (40, 1.44230871582031250000e+003) (41, 1.06889945983886720000e+002) (42, -1.49826513671875000000e+003) (43, 9.85444152832031250000e+002) (44, 1.50000000000000000000e+003) (45, 1.10062551498413090000e+001) (46, -9.95166809082031250000e+002) (47, 4.54246014356613160000e-001) (48, 1.50000000000000000000e+003) (49, 1.50000000000000000000e+003) (50, 7.99734069824218750000e+002) (51, 1.50000000000000000000e+003) (52, 6.74409057617187500000e+002) (53, -8.33513488769531250000e+002) (54, -1.29024703979492190000e+002) (55, 4.40902633666992190000e+001) (56, -2.32929944992065430000e+000) (57, -1.49991809082031250000e+003) (58, 5.54491937160491940000e-001) (59, 1.17475195312500000000e+003) (60, -8.29819946289062500000e+001) (61, -1.01102069091796870000e+003) (62, -1.49964709472656250000e+003) (63, 1.50000000000000000000e+003) (64, -2.46469573974609370000e+002) (65, 1.46754394531250000000e+003) (66, -1.47149584960937500000e+003) (67, 3.83155670166015620000e+002) (68, 2.14521072387695310000e+002) (69, 1.48220166015625000000e+003) (70, 1.50000000000000000000e+003) (71, 3.89075439453125000000e+002) (72, -1.38883471679687500000e+003) (73, -9.37179107666015630000e+001) (74, -8.71719604492187500000e+002) (75, 3.36284088134765620000e+002) (76, -1.49889257812500000000e+003) (77, -5.41859619140625000000e+002) (78, -1.43278564453125000000e+003) (79, -1.50000000000000000000e+003) (80, -1.49716418457031250000e+003) (81, 2.15989105224609370000e+002) (82, -7.05171569824218750000e+002) (83, -4.85596832275390620000e+002) (84, -1.43694116210937500000e+003) (85, -1.50000000000000000000e+003) (86, 4.31491851806640620000e+002) (87, 4.44739593505859370000e+002) (88, -8.28600952148437500000e+002) (89, -1.49593273925781250000e+003) (90, -1.31009472656250000000e+003) (91, -1.21062484741210940000e+002) (92, -1.09051586914062500000e+003) (93, -7.83363525390625000000e+002) (94, -7.46378906250000000000e+002) (95, -4.67329986572265620000e+002) (96, -2.97350128173828120000e+002) (97, 1.34358139038085940000e+002) (98, 1.49993627929687500000e+003) (99, -1.49197509765625000000e+003) (100, -1.49989440917968750000e+003) (101, -1.45841076660156250000e+003) (102, -9.93680480957031250000e+002) (103, 1.49964660644531250000e+003) (104, 1.49974877929687500000e+003) (105, 2.14364624023437500000e+002) (106, 1.49966040039062500000e+003) (107, -1.50000000000000000000e+003) (108, 1.50000000000000000000e+003) (109, 8.71238098144531250000e+002) (110, -6.60179382324218750000e+002) (111, 1.49820751953125000000e+003) (112, 1.45694384765625000000e+003) (113, 1.43540100097656250000e+003) (114, 1.49977758789062500000e+003) (115, 1.50000000000000000000e+003) (116, 1.50000000000000000000e+003) (117, -1.31543750000000000000e+003) (118, -1.50000000000000000000e+003) (119, -1.50000000000000000000e+003) (120, -5.82578918457031250000e+002) (121, -1.47289855957031250000e+003) (122, 1.50000000000000000000e+003) (123, 1.50000000000000000000e+003) (124, 1.49973352050781250000e+003) (125, 1.49993066406250000000e+003) (126, 3.89462921142578120000e+002) (127, 1.50000000000000000000e+003) (128, 1.66761535644531250000e+002) (129, 4.89488769531250000000e+002) (130, 5.34682861328125000000e+002) (131, 1.36631896972656250000e+002) (132, 1.79390850067138670000e+001) (133, 1.50000000000000000000e+003) (134, 1.50000000000000000000e+003) (135, 1.50000000000000000000e+003) (136, -6.74289855957031250000e+002) (137, 8.80444458007812500000e+002) (138, 1.50000000000000000000e+003) (139, -2.50998825073242190000e+002) (140, 1.49799523925781250000e+003) (141, -1.42219421386718750000e+003) (142, -3.09640197753906250000e+002) (143, 1.50000000000000000000e+003) (144, -5.26680725097656250000e+002) (145, 1.36738537597656250000e+003) (146, 1.50000000000000000000e+003) (147, 1.49536987304687500000e+003) (148, 1.50000000000000000000e+003) (149, 1.46593176269531250000e+003) (150, -3.72144561767578120000e+002) (151, 1.36652929687500000000e+003) (152, 1.50000000000000000000e+003) (153, 1.41238317489624020000e+001) (154, 1.50000000000000000000e+003) (155, 1.50000000000000000000e+003) (156, 1.50000000000000000000e+003) (157, -5.62083984375000000000e+002) (158, -1.50000000000000000000e+003) (159, 1.42070666503906250000e+003) (160, 1.50000000000000000000e+003) (161, -1.19996482849121090000e+002) (162, -1.50000000000000000000e+003) (163, -1.50000000000000000000e+003) (164, -1.50000000000000000000e+003) (165, -1.50000000000000000000e+003) (166, -1.50000000000000000000e+003) (167, -1.49590783691406250000e+003) (168, -8.73473937988281250000e+002) (169, -8.86320678710937500000e+002) (170, -3.19117279052734370000e+002) (171, 9.38468200683593750000e+002) (172, -1.26529797363281250000e+003) (173, -1.50000000000000000000e+003) (174, -1.50000000000000000000e+003) (175, -1.50000000000000000000e+003) (176, -1.50000000000000000000e+003) (177, -1.49636413574218750000e+003) (178, -2.02714263916015620000e+002) (179, 1.50000000000000000000e+003) (180, 1.50000000000000000000e+003) (181, 9.27052307128906250000e+002) (182, -1.50000000000000000000e+003) (183, -1.50000000000000000000e+003) (184, -1.50000000000000000000e+003) (185, -1.50000000000000000000e+003) (186, -1.50000000000000000000e+003) (187, -1.50000000000000000000e+003) (188, -1.50000000000000000000e+003) (189, -1.50000000000000000000e+003) (190, -1.50000000000000000000e+003) (191, -1.46325793457031250000e+003) (192, -1.50000000000000000000e+003) (193, -1.50000000000000000000e+003) (194, -1.49376599121093750000e+003) (195, -1.49663183593750000000e+003) (196, -1.50000000000000000000e+003) (197, -1.50000000000000000000e+003) (198, 1.50000000000000000000e+003) (199, 1.50000000000000000000e+003) (200, 1.50000000000000000000e+003) (201, 1.50000000000000000000e+003) (202, 1.50000000000000000000e+003) (203, 1.50000000000000000000e+003) (204, 3.13945404052734370000e+002) (205, 9.91462158203125000000e+002) (206, 1.48905957031250000000e+003) (207, 1.50000000000000000000e+003) (208, 1.37683740234375000000e+003) (209, 1.45452563476562500000e+003) (210, -6.13028747558593750000e+002) (211, 1.47913854980468750000e+003) (212, -1.46708081054687500000e+003) (213, -2.23814422607421870000e+002) (214, -1.50000000000000000000e+003) (215, -1.50000000000000000000e+003) (216, 1.50000000000000000000e+003) (217, 1.49389672851562500000e+003) (218, 1.50000000000000000000e+003) (219, 1.50000000000000000000e+003) (220, 1.50000000000000000000e+003) (221, 1.53324691772460940000e+002) (222, -1.18268640136718750000e+003) (223, -1.24681632995605470000e+002) (224, -2.14098144531250000000e+002) (225, 1.40502441406250000000e+003) (226, -1.44425195312500000000e+003) (227, -1.46372753906250000000e+003) (228, -1.49468737792968750000e+003) (229, -1.49782482910156250000e+003) (230, -1.34332226562500000000e+003) (231, -1.49764672851562500000e+003) (232, 4.32626342773437500000e+001) (233, -1.49940197753906250000e+003) (234, -9.49696273803710940000e+001) (235, -1.48888037109375000000e+003) (236, 1.50000000000000000000e+003) (237, 1.21911585330963130000e+000) (238, 1.50000000000000000000e+003) (239, 1.50000000000000000000e+003) (240, 1.50000000000000000000e+003) (241, 1.50000000000000000000e+003) (242, 9.03655151367187500000e+002) (243, 1.50000000000000000000e+003) (244, -3.95873603820800780000e+001) (245, -1.49788232421875000000e+003) (246, -1.49966979980468750000e+003) (247, -9.46289123535156250000e+002) (248, -1.29892089843750000000e+003) (249, -5.71694274902343750000e+002) (250, -1.50000000000000000000e+003) (251, -1.49286511230468750000e+003) (252, -1.50000000000000000000e+003) (253, -6.24015075683593750000e+002) (254, 9.90945190429687500000e+002) (255, -6.56785202026367190000e+001) (256, 1.50000000000000000000e+003) (257, 1.46274230957031250000e+003) (258, 1.50000000000000000000e+003) (259, 1.50000000000000000000e+003) (260, 6.29527151584625240000e-001) (261, 1.50000000000000000000e+003) (262, 1.50000000000000000000e+003) (263, 1.50000000000000000000e+003) (264, 1.50000000000000000000e+003) (265, 1.50000000000000000000e+003) (266, 1.50000000000000000000e+003) (267, 1.50000000000000000000e+003) (268, 1.50000000000000000000e+003) (269, 7.67074951171875000000e+002) (270, -3.21960678100585940000e+001) (271, 6.49641571044921880000e+001) (272, 1.50000000000000000000e+003) (273, 1.50000000000000000000e+003) (274, 1.50000000000000000000e+003) (275, 1.50000000000000000000e+003) (276, 1.50000000000000000000e+003) (277, -3.08012992143630980000e-001) (278, 1.51220095157623290000e+000) (279, 1.55597925186157230000e-001) (280, -8.68523269891738890000e-002) (0, 2.17528030395507810000e+002) (1, 2.70240664482116700000e-001) (2, -1.50000000000000000000e+003) (3, -4.43160095214843750000e+002) (4, -1.11045520019531250000e+003) (5, -1.50000000000000000000e+003) (6, 6.57915039062500000000e+002) (7, 8.19836020469665530000e-001) (8, -1.48633483886718750000e+003) (9, -5.13450683593750000000e+002) (10, -1.50000000000000000000e+003) (11, -9.88660095214843750000e+002) (12, -1.49500024414062500000e+003) (13, -1.42619982910156250000e+003) (14, -1.41735522460937500000e+003) (15, -7.47854248046875000000e+002) (16, 1.50000000000000000000e+003) (17, 2.54685974121093750000e+001) (18, 1.50000000000000000000e+003) (19, 1.50000000000000000000e+003) (20, 5.43653488159179690000e+001) (21, 1.49995166015625000000e+003) (22, -1.50000000000000000000e+003) (23, 8.93775207519531250000e+002) (24, -1.50000000000000000000e+003) (25, 1.50000000000000000000e+003) (26, -5.33039794921875000000e+002) (27, 4.26330566406250000000e+002) (28, -2.12338409423828130000e+001) (29, -1.33556564331054690000e+002) (30, -1.18801464843750000000e+003) (31, 8.25335025787353520000e+000) (32, 1.02322369384765620000e+003) (33, 3.81080902099609370000e+002) (34, -4.11256713867187500000e+002) (35, -8.95441412925720210000e-001) (36, -6.47327527403831480000e-002) (37, -1.35898181152343750000e+003) (38, 7.41219520568847660000e+000) (39, 1.50000000000000000000e+003) (40, 1.44230786132812500000e+003) (41, 1.07160079956054690000e+002) (42, -1.49826513671875000000e+003) (43, 9.85929870605468750000e+002) (44, 1.50000000000000000000e+003) (45, 1.11875905990600590000e+001) (46, -9.94808959960937500000e+002) (47, 6.76701009273529050000e-001) (48, 1.50000000000000000000e+003) (49, 1.50000000000000000000e+003) (50, 7.97165100097656250000e+002) (51, 1.50000000000000000000e+003) (52, 6.74894775390625000000e+002) (53, -8.38934020996093750000e+002) (54, -1.28866897583007810000e+002) (55, 4.47732086181640620000e+001) (56, -2.58281898498535160000e+000) (57, -1.49991809082031250000e+003) (58, 7.81185209751129150000e-001) (59, 1.17547253417968750000e+003) (60, 3.22745849609375000000e+002) (61, -1.01102069091796870000e+003) (62, -1.49964709472656250000e+003) (63, 1.50000000000000000000e+003) (64, 2.71447124481201170000e+001) (65, 7.98623046875000000000e+002) (66, -1.47149584960937500000e+003) (67, 3.83155670166015620000e+002) (68, -9.57905654907226560000e+001) (69, 1.48220166015625000000e+003) (70, 1.50000000000000000000e+003) (71, 7.17876159667968750000e+002) (72, -1.38883471679687500000e+003) (73, -5.56790504455566410000e+001) (74, -8.71719604492187500000e+002) (75, 3.37543975830078120000e+002) (76, -1.49889257812500000000e+003) (77, -1.02793952941894530000e+002) (78, -1.43092346191406250000e+003) (79, -1.50000000000000000000e+003) (80, -8.27268676757812500000e+002) (81, 2.16307647705078120000e+002) (82, -7.04757141113281250000e+002) (83, -6.67741455078125000000e+002) (84, -1.43694116210937500000e+003) (85, -1.50000000000000000000e+003) (86, 3.97841003417968750000e+002) (87, 4.44555755615234370000e+002) (88, -8.28401550292968750000e+002) (89, -1.49593273925781250000e+003) (90, -1.24941821289062500000e+003) (91, -6.35814208984375000000e+002) (92, -1.28797680664062500000e+003) (93, -7.42457397460937500000e+002) (94, -7.45820861816406250000e+002) (95, -4.67330566406250000000e+002) (96, -2.96841918945312500000e+002) (97, 4.41231193542480470000e+001) (98, 1.49993627929687500000e+003) (99, -1.49197509765625000000e+003) (100, -1.49989440917968750000e+003) (101, -1.45841076660156250000e+003) (102, -9.93324523925781250000e+002) (103, 1.49964660644531250000e+003) (104, 1.49974877929687500000e+003) (105, 2.79278320312500000000e+002) (106, 1.49966040039062500000e+003) (107, -1.50000000000000000000e+003) (108, 1.50000000000000000000e+003) (109, 9.09420623779296880000e+001) (110, -6.87144714355468750000e+002) (111, 1.49820751953125000000e+003) (112, 1.45694384765625000000e+003) (113, 1.43391406250000000000e+003) (114, 1.49977758789062500000e+003) (115, 1.50000000000000000000e+003) (116, 1.50000000000000000000e+003) (117, -1.25401513671875000000e+003) (118, -1.50000000000000000000e+003) (119, -1.50000000000000000000e+003) (120, -5.80598754882812500000e+002) (121, -1.47289855957031250000e+003) (122, 1.50000000000000000000e+003) (123, 1.50000000000000000000e+003) (124, 1.49973352050781250000e+003) (125, 1.43185534667968750000e+003) (126, 3.89462921142578120000e+002) (127, 1.50000000000000000000e+003) (128, -9.77007446289062500000e+002) (129, 4.74630462646484370000e+002) (130, 3.15004516601562500000e+002) (131, 1.18150581359863280000e+002) (132, 1.77708473205566410000e+001) (133, 1.50000000000000000000e+003) (134, 1.50000000000000000000e+003) (135, 1.50000000000000000000e+003) (136, -9.29789306640625000000e+002) (137, -1.92526412963867190000e+002) (138, 1.50000000000000000000e+003) (139, -2.51244491577148440000e+002) (140, 1.49799523925781250000e+003) (141, -1.42219421386718750000e+003) (142, -3.09534881591796870000e+002) (143, 1.50000000000000000000e+003) (144, -5.27347290039062500000e+002) (145, 9.07063842773437500000e+002) (146, 1.50000000000000000000e+003) (147, 1.47394067382812500000e+003) (148, 1.50000000000000000000e+003) (149, 1.46593176269531250000e+003) (150, -4.75202819824218750000e+002) (151, 1.36652929687500000000e+003) (152, 1.50000000000000000000e+003) (153, 1.21427545547485350000e+001) (154, 1.50000000000000000000e+003) (155, 1.50000000000000000000e+003) (156, 1.50000000000000000000e+003) (157, -7.89844543457031250000e+002) (158, -1.50000000000000000000e+003) (159, 1.42070666503906250000e+003) (160, 1.50000000000000000000e+003) (161, -1.19708747863769530000e+002) (162, -1.50000000000000000000e+003) (163, -1.50000000000000000000e+003) (164, -1.50000000000000000000e+003) (165, -1.50000000000000000000e+003) (166, -1.50000000000000000000e+003) (167, -1.49590783691406250000e+003) (168, -8.75132873535156250000e+002) (169, -8.86320678710937500000e+002) (170, -4.30404754638671870000e+002) (171, 9.38468200683593750000e+002) (172, -1.26529797363281250000e+003) (173, -1.50000000000000000000e+003) (174, -1.50000000000000000000e+003) (175, -1.50000000000000000000e+003) (176, -1.50000000000000000000e+003) (177, -1.49636413574218750000e+003) (178, -1.48936853027343750000e+003) (179, 1.50000000000000000000e+003) (180, 1.50000000000000000000e+003) (181, 9.27052307128906250000e+002) (182, -1.50000000000000000000e+003) (183, -1.50000000000000000000e+003) (184, -1.50000000000000000000e+003) (185, -1.50000000000000000000e+003) (186, -1.50000000000000000000e+003) (187, -1.50000000000000000000e+003) (188, -1.50000000000000000000e+003) (189, -1.50000000000000000000e+003) (190, -1.50000000000000000000e+003) (191, -1.46325793457031250000e+003) (192, -1.50000000000000000000e+003) (193, -1.50000000000000000000e+003) (194, -1.49376599121093750000e+003) (195, -1.49663183593750000000e+003) (196, -1.50000000000000000000e+003) (197, -1.50000000000000000000e+003) (198, 1.50000000000000000000e+003) (199, 1.50000000000000000000e+003) (200, 1.50000000000000000000e+003) (201, 1.50000000000000000000e+003) (202, 1.50000000000000000000e+003) (203, 1.50000000000000000000e+003) (204, 5.88199234008789060000e+001) (205, 9.91462158203125000000e+002) (206, 1.48905957031250000000e+003) (207, 1.50000000000000000000e+003) (208, 1.22620825195312500000e+003) (209, 1.45452563476562500000e+003) (210, -1.12477600097656250000e+003) (211, 1.47913854980468750000e+003) (212, -1.46708081054687500000e+003) (213, -2.23814422607421870000e+002) (214, -1.50000000000000000000e+003) (215, -1.50000000000000000000e+003) (216, 1.50000000000000000000e+003) (217, 1.49389672851562500000e+003) (218, 1.50000000000000000000e+003) (219, 1.50000000000000000000e+003) (220, 1.50000000000000000000e+003) (221, 2.20342132568359370000e+002) (222, -1.13861181640625000000e+003) (223, -1.18681838989257810000e+002) (224, -2.13856552124023440000e+002) (225, 1.33164050292968750000e+003) (226, -1.44425195312500000000e+003) (227, -1.46372753906250000000e+003) (228, -1.49468737792968750000e+003) (229, -1.49782482910156250000e+003) (230, -1.34307788085937500000e+003) (231, -1.49764672851562500000e+003) (232, 4.31173667907714840000e+001) (233, -1.49940197753906250000e+003) (234, -9.69501876831054690000e+001) (235, -1.48888037109375000000e+003) (236, 1.50000000000000000000e+003) (237, 1.60424005985260010000e+000) (238, 1.50000000000000000000e+003) (239, 1.50000000000000000000e+003) (240, 1.50000000000000000000e+003) (241, 1.50000000000000000000e+003) (242, 9.03655151367187500000e+002) (243, 1.50000000000000000000e+003) (244, -2.58430290222167970000e+001) (245, -1.49788232421875000000e+003) (246, -1.07822473144531250000e+003) (247, -1.33615075683593750000e+003) (248, -1.27823937988281250000e+003) (249, -5.63366210937500000000e+002) (250, -1.50000000000000000000e+003) (251, -1.49286511230468750000e+003) (252, -1.50000000000000000000e+003) (253, -6.17387207031250000000e+002) (254, 9.91591796875000000000e+002) (255, -6.31012611389160160000e+001) (256, 1.50000000000000000000e+003) (257, 1.46359692382812500000e+003) (258, 1.50000000000000000000e+003) (259, 1.50000000000000000000e+003) (260, 1.11290335655212400000e+000) (261, 1.50000000000000000000e+003) (262, 1.50000000000000000000e+003) (263, 1.50000000000000000000e+003) (264, 1.50000000000000000000e+003) (265, 1.50000000000000000000e+003) (266, 1.50000000000000000000e+003) (267, 1.50000000000000000000e+003) (268, 1.50000000000000000000e+003) (269, 7.66938171386718750000e+002) (270, -3.15798969268798830000e+001) (271, 6.53294219970703130000e+001) (272, 1.50000000000000000000e+003) (273, 1.50000000000000000000e+003) (274, 1.50000000000000000000e+003) (275, 1.50000000000000000000e+003) (276, 1.50000000000000000000e+003) (277, 4.39831137657165530000e-001) (278, 2.54174423217773440000e+000) (279, 2.35046893358230590000e-001) (280, 2.09797620773315430000e-002) (0, -1.54453430175781250000e+002) (1, 1.28046065568923950000e-001) (2, 1.50000000000000000000e+003) (3, -3.61142486572265620000e+002) (4, 1.09973381042480470000e+002) (5, 1.50000000000000000000e+003) (6, -4.61665039062500000000e+002) (7, -1.36714935302734380000e-001) (8, 7.09700317382812500000e+002) (9, 7.38668518066406250000e+002) (10, 1.50000000000000000000e+003) (11, 4.33343780517578120000e+002) (12, 1.49833142089843750000e+003) (13, 1.46900939941406250000e+003) (14, 4.01208435058593750000e+002) (15, -3.56023986816406250000e+002) (16, 6.25073486328125000000e+002) (17, -1.31403713226318360000e+001) (18, 4.82087768554687500000e+002) (19, -1.50000000000000000000e+003) (20, -1.25423455238342290000e+000) (21, 5.92631103515625000000e+002) (22, 1.50000000000000000000e+003) (23, 6.18316406250000000000e+002) (24, 1.50000000000000000000e+003) (25, -7.62588989257812500000e+002) (26, -3.08906219482421870000e+002) (27, 5.35680618286132810000e+001) (28, 2.47842197418212890000e+001) (29, -1.31743087768554690000e+002) (30, 1.29471569824218750000e+003) (31, -6.93714046478271480000e+000) (32, -5.80331420898437500000e+002) (33, 3.11668212890625000000e+002) (34, -4.03895477294921870000e+002) (35, -1.12286841869354250000e+000) (36, -1.32228803634643550000e+000) (37, 1.46317053222656250000e+003) (38, -5.65319538116455080000e+000) (39, -1.50000000000000000000e+003) (40, 1.30590234375000000000e+003) (41, 1.21134231567382810000e+002) (42, 1.50000000000000000000e+003) (43, 2.43419540405273440000e+002) (44, -1.50000000000000000000e+003) (45, 2.15636520385742190000e+001) (46, 1.35899597167968750000e+003) (47, 2.77307033538818360000e-001) (48, -1.50000000000000000000e+003) (49, -1.50000000000000000000e+003) (50, -5.57422058105468750000e+002) (51, -1.50000000000000000000e+003) (52, 1.23621734619140620000e+002) (53, -2.22292953491210940000e+002) (54, -5.08945312500000000000e+002) (55, 1.21930313110351560000e+002) (56, -3.60046696662902830000e+000) (57, 1.49995556640625000000e+003) (58, 9.37173426151275630000e-001) (59, 9.89278015136718750000e+002) (60, -7.50193786621093750000e+001) (61, 1.16275183105468750000e+003) (62, 5.25673889160156250000e+002) (63, -1.50000000000000000000e+003) (64, 4.67013397216796870000e+002) (65, 8.72040649414062500000e+002) (66, 9.11090942382812500000e+002) (67, -1.43297332763671870000e+002) (68, 1.40663635253906250000e+003) (69, 2.27480590820312500000e+002) (70, 3.62130584716796870000e+002) (71, -1.98833663940429690000e+002) (72, 1.42328991699218750000e+003) (73, -7.86460647583007810000e+001) (74, -4.54097137451171870000e+002) (75, -1.73210693359375000000e+002) (76, 1.49967553710937500000e+003) (77, 2.61688289642333980000e+001) (78, 7.33805297851562500000e+002) (79, 1.50000000000000000000e+003) (80, -2.13392181396484370000e+002) (81, -1.15360860824584960000e+001) (82, -2.36606246948242190000e+002) (83, 1.44539758300781250000e+003) (84, 1.49999511718750000000e+003) (85, 1.50000000000000000000e+003) (86, 4.44952117919921870000e+002) (87, 6.58280517578125000000e+002) (88, 8.62228332519531250000e+002) (89, 1.49986169433593750000e+003) (90, 2.60254119873046870000e+002) (91, -3.81179534912109370000e+002) (92, -6.87045898437500000000e+002) (93, 9.91351379394531250000e+002) (94, 5.73245605468750000000e+002) (95, 7.25372131347656250000e+002) (96, -3.26849731445312500000e+002) (97, -4.41479400634765620000e+002) (98, -1.49957458496093750000e+003) (99, 1.40586926269531250000e+003) (100, 2.21435699462890620000e+002) (101, 1.48578417968750000000e+003) (102, 7.94466979980468750000e+002) (103, -2.88551452636718750000e+002) (104, -1.49949304199218750000e+003) (105, 4.18799194335937500000e+002) (106, -1.00436993408203120000e+003) (107, 1.13396508789062500000e+003) (108, -1.50000000000000000000e+003) (109, -4.02451965332031250000e+002) (110, 7.23038391113281250000e+002) (111, -8.82082214355468750000e+002) (112, -1.42377416992187500000e+003) (113, -8.69976135253906250000e+002) (114, -1.49142712402343750000e+003) (115, -1.50000000000000000000e+003) (116, -1.50000000000000000000e+003) (117, 1.04030493164062500000e+003) (118, 1.50000000000000000000e+003) (119, 1.50000000000000000000e+003) (120, 4.86110137939453120000e+002) (121, 1.50000000000000000000e+003) (122, -1.50000000000000000000e+003) (123, -1.50000000000000000000e+003) (124, -4.44395690917968750000e+002) (125, -1.40635223388671870000e+002) (126, 1.47222521972656250000e+003) (127, -1.50000000000000000000e+003) (128, -6.85019836425781250000e+002) (129, -3.62735351562500000000e+002) (130, 3.76189300537109370000e+002) (131, 1.40689892578125000000e+003) (132, 6.99248933792114260000e+000) (133, -1.50000000000000000000e+003) (134, -1.50000000000000000000e+003) (135, -1.50000000000000000000e+003) (136, 5.62535034179687500000e+002) (137, -4.00597961425781250000e+002) (138, -1.50000000000000000000e+003) (139, 1.21625343322753910000e+002) (140, -1.48536950683593750000e+003) (141, 1.48570959472656250000e+003) (142, -6.24051895141601560000e+001) (143, -1.50000000000000000000e+003) (144, 1.46189672851562500000e+003) (145, -5.01399261474609370000e+002) (146, -1.50000000000000000000e+003) (147, -4.32759948730468750000e+002) (148, -1.50000000000000000000e+003) (149, -1.41134277343750000000e+003) (150, 3.13423675537109380000e+002) (151, -9.06146667480468750000e+002) (152, -1.50000000000000000000e+003) (153, 6.30925750732421870000e+000) (154, -1.50000000000000000000e+003) (155, -1.42095788574218750000e+003) (156, -1.50000000000000000000e+003) (157, 1.04198143005371090000e+002) (158, 1.50000000000000000000e+003) (159, -1.39574450683593750000e+003) (160, -1.50000000000000000000e+003) (161, -9.46211853027343750000e+001) (162, 1.50000000000000000000e+003) (163, 1.50000000000000000000e+003) (164, 1.50000000000000000000e+003) (165, 1.50000000000000000000e+003) (166, 1.50000000000000000000e+003) (167, 1.49999804687500000000e+003) (168, 1.15663049316406250000e+003) (169, 1.15336120605468750000e+003) (170, 1.37147924804687500000e+003) (171, 5.24082794189453130000e+001) (172, 1.33412377929687500000e+003) (173, 1.50000000000000000000e+003) (174, 1.50000000000000000000e+003) (175, 1.50000000000000000000e+003) (176, 1.50000000000000000000e+003) (177, 1.49998828125000000000e+003) (178, 9.01158523559570310000e+001) (179, -1.50000000000000000000e+003) (180, -1.50000000000000000000e+003) (181, 6.32431274414062500000e+002) (182, 1.50000000000000000000e+003) (183, 1.50000000000000000000e+003) (184, 1.50000000000000000000e+003) (185, 1.50000000000000000000e+003) (186, 1.50000000000000000000e+003) (187, 1.50000000000000000000e+003) (188, 1.50000000000000000000e+003) (189, 1.50000000000000000000e+003) (190, 1.50000000000000000000e+003) (191, 1.48740747070312500000e+003) (192, 1.50000000000000000000e+003) (193, 1.50000000000000000000e+003) (194, 1.50000000000000000000e+003) (195, 1.49987219238281250000e+003) (196, 1.50000000000000000000e+003) (197, 1.50000000000000000000e+003) (198, -1.50000000000000000000e+003) (199, -1.50000000000000000000e+003) (200, -1.50000000000000000000e+003) (201, -1.50000000000000000000e+003) (202, -1.50000000000000000000e+003) (203, -1.43576989746093750000e+003) (204, 1.20342810058593750000e+003) (205, -2.98524932861328120000e+002) (206, -1.47441516113281250000e+003) (207, -1.50000000000000000000e+003) (208, -2.07727066040039060000e+002) (209, -1.41894494628906250000e+003) (210, 2.94987396240234370000e+002) (211, -9.48457702636718750000e+002) (212, 1.49999719238281250000e+003) (213, 8.14620056152343750000e+002) (214, 1.50000000000000000000e+003) (215, 1.50000000000000000000e+003) (216, -1.50000000000000000000e+003) (217, -1.48326135253906250000e+003) (218, -1.50000000000000000000e+003) (219, -1.50000000000000000000e+003) (220, -1.50000000000000000000e+003) (221, 8.96698455810546880000e+001) (222, 1.49845910644531250000e+003) (223, 1.38147659301757810000e+002) (224, 4.91119537353515620000e+002) (225, -3.28038208007812500000e+002) (226, 1.45792773437500000000e+003) (227, 1.47641503906250000000e+003) (228, 1.49691137695312500000e+003) (229, 1.49874560546875000000e+003) (230, 1.49957836914062500000e+003) (231, 1.26806408691406250000e+003) (232, -2.64100017547607420000e+001) (233, 1.49998889160156250000e+003) (234, 1.25373908996582030000e+002) (235, 1.49650610351562500000e+003) (236, -1.50000000000000000000e+003) (237, -5.92593550682067870000e-001) (238, -1.50000000000000000000e+003) (239, -1.50000000000000000000e+003) (240, -1.50000000000000000000e+003) (241, -8.47474487304687500000e+002) (242, 1.00419700622558590000e+002) (243, -1.50000000000000000000e+003) (244, -2.63375568389892580000e+001) (245, 6.42334533691406250000e+002) (246, -1.60031799316406250000e+002) (247, -1.68283538818359370000e+002) (248, 7.19737609863281250000e+002) (249, 6.77842651367187500000e+002) (250, 1.50000000000000000000e+003) (251, 1.49623864746093750000e+003) (252, 1.50000000000000000000e+003) (253, 8.42256103515625000000e+002) (254, 1.03117602539062500000e+003) (255, 8.68838653564453130000e+001) (256, -1.50000000000000000000e+003) (257, -1.17853833007812500000e+003) (258, -1.50000000000000000000e+003) (259, -1.50000000000000000000e+003) (260, 2.53574941307306290000e-002) (261, -1.50000000000000000000e+003) (262, -1.50000000000000000000e+003) (263, -1.50000000000000000000e+003) (264, -1.50000000000000000000e+003) (265, -1.50000000000000000000e+003) (266, -1.50000000000000000000e+003) (267, -1.49939843750000000000e+003) (268, -1.49421716308593750000e+003) (269, -5.42497253417968750000e+002) (270, 4.12138290405273440000e+001) (271, -4.06247253417968750000e+001) (272, -1.49994873046875000000e+003) (273, -1.50000000000000000000e+003) (274, -1.49995202636718750000e+003) (275, -1.50000000000000000000e+003) (276, -1.50000000000000000000e+003) (277, -4.22572106122970580000e-001) (278, 3.58447372913360600000e-001) (279, 1.14996343851089480000e-001) (280, -9.05773282051086430000e-001) (0, 2.16858474731445310000e+002) (1, -9.50449779629707340000e-002) (2, -1.50000000000000000000e+003) (3, -4.43595764160156250000e+002) (4, -1.11054028320312500000e+003) (5, -1.50000000000000000000e+003) (6, 6.56953369140625000000e+002) (7, 7.65665411949157710000e-001) (8, -1.27788940429687500000e+003) (9, -5.13559265136718750000e+002) (10, -1.50000000000000000000e+003) (11, -9.89400451660156250000e+002) (12, -1.49500024414062500000e+003) (13, -1.42619982910156250000e+003) (14, -1.41735522460937500000e+003) (15, -7.47965087890625000000e+002) (16, 1.50000000000000000000e+003) (17, 2.93244113922119140000e+001) (18, 1.50000000000000000000e+003) (19, 1.50000000000000000000e+003) (20, 6.85571670532226560000e+001) (21, 1.49995166015625000000e+003) (22, -1.50000000000000000000e+003) (23, 8.93775207519531250000e+002) (24, -1.50000000000000000000e+003) (25, 1.50000000000000000000e+003) (26, -5.33171142578125000000e+002) (27, 4.26165161132812500000e+002) (28, -2.08993682861328120000e+001) (29, -1.33644927978515620000e+002) (30, -9.06321899414062500000e+002) (31, 8.53328418731689450000e+000) (32, 1.02394451904296870000e+003) (33, 3.80433502197265620000e+002) (34, -4.05521789550781250000e+002) (35, -1.71255397796630860000e+000) (36, 3.84035736322402950000e-001) (37, -1.35898181152343750000e+003) (38, 7.98602771759033200000e+000) (39, 1.50000000000000000000e+003) (40, 1.44230871582031250000e+003) (41, 1.06423339843750000000e+002) (42, -1.49826513671875000000e+003) (43, 9.85369201660156250000e+002) (44, 1.50000000000000000000e+003) (45, 1.04293699264526370000e+001) (46, -9.94385803222656250000e+002) (47, 1.42505809664726260000e-001) (48, 1.50000000000000000000e+003) (49, 1.50000000000000000000e+003) (50, 8.03125610351562500000e+002) (51, 1.50000000000000000000e+003) (52, 6.74325134277343750000e+002) (53, -8.33740417480468750000e+002) (54, -1.28714645385742190000e+002) (55, 4.39734268188476560000e+001) (56, -2.99671554565429690000e+000) (57, -1.49991809082031250000e+003) (58, 1.24230360984802250000e+000) (59, 1.17458276367187500000e+003) (60, -8.29831848144531250000e+001) (61, -1.01102069091796870000e+003) (62, -1.49964709472656250000e+003) (63, 1.50000000000000000000e+003) (64, -2.47298187255859370000e+002) (65, 1.46754394531250000000e+003) (66, -1.47149584960937500000e+003) (67, 3.83155670166015620000e+002) (68, 2.14547012329101560000e+002) (69, 1.48220166015625000000e+003) (70, 1.50000000000000000000e+003) (71, 3.87607727050781250000e+002) (72, -1.38883471679687500000e+003) (73, -5.71919937133789060000e+001) (74, -8.71719604492187500000e+002) (75, 3.35923797607421870000e+002) (76, -1.49889257812500000000e+003) (77, -5.06907165527343750000e+002) (78, -1.43489050292968750000e+003) (79, -1.50000000000000000000e+003) (80, -1.49716418457031250000e+003) (81, 2.16035690307617190000e+002) (82, -7.04913391113281250000e+002) (83, -4.85866302490234370000e+002) (84, -1.43694116210937500000e+003) (85, -1.50000000000000000000e+003) (86, 3.97951171875000000000e+002) (87, 4.44222259521484370000e+002) (88, -8.28233703613281250000e+002) (89, -1.49593273925781250000e+003) (90, -1.30337939453125000000e+003) (91, -1.21329444885253910000e+002) (92, -1.28904321289062500000e+003) (93, -7.83594238281250000000e+002) (94, -7.45906799316406250000e+002) (95, -4.67329986572265620000e+002) (96, -2.96633819580078120000e+002) (97, 4.33761100769042970000e+001) (98, 1.49993627929687500000e+003) (99, -1.49197509765625000000e+003) (100, -1.49989440917968750000e+003) (101, -1.45841076660156250000e+003) (102, -9.94174621582031250000e+002) (103, 1.49964660644531250000e+003) (104, 1.49974877929687500000e+003) (105, 2.80039733886718750000e+002) (106, 1.49966040039062500000e+003) (107, -1.50000000000000000000e+003) (108, 1.50000000000000000000e+003) (109, 8.46603027343750000000e+002) (110, -6.60074218750000000000e+002) (111, 1.49820751953125000000e+003) (112, 1.45694384765625000000e+003) (113, 1.43651989746093750000e+003) (114, 1.49977758789062500000e+003) (115, 1.50000000000000000000e+003) (116, 1.50000000000000000000e+003) (117, -1.31611645507812500000e+003) (118, -1.50000000000000000000e+003) (119, -1.50000000000000000000e+003) (120, -5.81032348632812500000e+002) (121, -1.47289855957031250000e+003) (122, 1.50000000000000000000e+003) (123, 1.50000000000000000000e+003) (124, 1.49973352050781250000e+003) (125, 1.49993066406250000000e+003) (126, 3.89462921142578120000e+002) (127, 1.50000000000000000000e+003) (128, 1.68750244140625000000e+002) (129, 4.92320343017578130000e+002) (130, 6.67585510253906250000e+002) (131, 1.33006423950195310000e+002) (132, 2.05160808563232420000e+001) (133, 1.50000000000000000000e+003) (134, 1.50000000000000000000e+003) (135, 1.50000000000000000000e+003) (136, -6.74182983398437500000e+002) (137, 8.79532287597656250000e+002) (138, 1.50000000000000000000e+003) (139, -2.50787673950195310000e+002) (140, 1.49799523925781250000e+003) (141, -1.42219421386718750000e+003) (142, -3.09742279052734370000e+002) (143, 1.50000000000000000000e+003) (144, -5.26703552246093750000e+002) (145, 1.36786926269531250000e+003) (146, 1.50000000000000000000e+003) (147, 1.49536987304687500000e+003) (148, 1.50000000000000000000e+003) (149, 1.46593176269531250000e+003) (150, -3.73083892822265620000e+002) (151, 1.36652929687500000000e+003) (152, 1.50000000000000000000e+003) (153, 1.39535560607910160000e+001) (154, 1.50000000000000000000e+003) (155, 1.50000000000000000000e+003) (156, 1.50000000000000000000e+003) (157, -5.63468872070312500000e+002) (158, -1.50000000000000000000e+003) (159, 1.42070666503906250000e+003) (160, 1.50000000000000000000e+003) (161, -1.19849021911621090000e+002) (162, -1.50000000000000000000e+003) (163, -1.50000000000000000000e+003) (164, -1.50000000000000000000e+003) (165, -1.50000000000000000000e+003) (166, -1.50000000000000000000e+003) (167, -1.49590783691406250000e+003) (168, -8.73161437988281250000e+002) (169, -8.86320678710937500000e+002) (170, -3.25399322509765630000e+002) (171, 9.38468200683593750000e+002) (172, -1.26529797363281250000e+003) (173, -1.50000000000000000000e+003) (174, -1.50000000000000000000e+003) (175, -1.50000000000000000000e+003) (176, -1.50000000000000000000e+003) (177, -1.49636413574218750000e+003) (178, -2.02654388427734370000e+002) (179, 1.50000000000000000000e+003) (180, 1.50000000000000000000e+003) (181, 9.27052307128906250000e+002) (182, -1.50000000000000000000e+003) (183, -1.50000000000000000000e+003) (184, -1.50000000000000000000e+003) (185, -1.50000000000000000000e+003) (186, -1.50000000000000000000e+003) (187, -1.50000000000000000000e+003) (188, -1.50000000000000000000e+003) (189, -1.50000000000000000000e+003) (190, -1.50000000000000000000e+003) (191, -1.46325793457031250000e+003) (192, -1.50000000000000000000e+003) (193, -1.50000000000000000000e+003) (194, -1.49376599121093750000e+003) (195, -1.49663183593750000000e+003) (196, -1.50000000000000000000e+003) (197, -1.50000000000000000000e+003) (198, 1.50000000000000000000e+003) (199, 1.50000000000000000000e+003) (200, 1.50000000000000000000e+003) (201, 1.50000000000000000000e+003) (202, 1.50000000000000000000e+003) (203, 1.50000000000000000000e+003) (204, 3.46557678222656250000e+002) (205, 9.91462158203125000000e+002) (206, 1.48905957031250000000e+003) (207, 1.50000000000000000000e+003) (208, 1.37666796875000000000e+003) (209, 1.45452563476562500000e+003) (210, -8.42945983886718750000e+002) (211, 1.47913854980468750000e+003) (212, -1.46708081054687500000e+003) (213, -2.23814422607421870000e+002) (214, -1.50000000000000000000e+003) (215, -1.50000000000000000000e+003) (216, 1.50000000000000000000e+003) (217, 1.49389672851562500000e+003) (218, 1.50000000000000000000e+003) (219, 1.50000000000000000000e+003) (220, 1.50000000000000000000e+003) (221, 2.19455139160156250000e+002) (222, -1.18292687988281250000e+003) (223, -1.24692291259765620000e+002) (224, -2.13227859497070310000e+002) (225, 1.40492614746093750000e+003) (226, -1.44425195312500000000e+003) (227, -1.46372753906250000000e+003) (228, -1.49468737792968750000e+003) (229, -1.49782482910156250000e+003) (230, -1.34322326660156250000e+003) (231, -1.49764672851562500000e+003) (232, 4.24951438903808590000e+001) (233, -1.49940197753906250000e+003) (234, -9.71872329711914060000e+001) (235, -1.48888037109375000000e+003) (236, 1.50000000000000000000e+003) (237, 6.41649782657623290000e-001) (238, 1.50000000000000000000e+003) (239, 1.50000000000000000000e+003) (240, 1.50000000000000000000e+003) (241, 1.50000000000000000000e+003) (242, 9.03655151367187500000e+002) (243, 1.50000000000000000000e+003) (244, -3.97136955261230470000e+001) (245, -1.49788232421875000000e+003) (246, -1.49966979980468750000e+003) (247, -1.38038342285156250000e+003) (248, -1.36518383789062500000e+003) (249, -5.71414123535156250000e+002) (250, -1.50000000000000000000e+003) (251, -1.49286511230468750000e+003) (252, -1.50000000000000000000e+003) (253, -6.25119445800781250000e+002) (254, 9.91003540039062500000e+002) (255, -6.52133789062500000000e+001) (256, 1.50000000000000000000e+003) (257, 1.46285900878906250000e+003) (258, 1.50000000000000000000e+003) (259, 1.50000000000000000000e+003) (260, 9.82589483261108400000e-001) (261, 1.50000000000000000000e+003) (262, 1.50000000000000000000e+003) (263, 1.50000000000000000000e+003) (264, 1.50000000000000000000e+003) (265, 1.50000000000000000000e+003) (266, 1.50000000000000000000e+003) (267, 1.50000000000000000000e+003) (268, 1.50000000000000000000e+003) (269, 7.66137329101562500000e+002) (270, -3.21411056518554690000e+001) (271, 6.43254699707031250000e+001) (272, 1.50000000000000000000e+003) (273, 1.50000000000000000000e+003) (274, 1.50000000000000000000e+003) (275, 1.50000000000000000000e+003) (276, 1.50000000000000000000e+003) (277, 1.34472742676734920000e-001) (278, 1.46497857570648190000e+000) (279, -2.01851189136505130000e-001) (280, -1.08486138284206390000e-001) (0, 2.17620574951171870000e+002) (1, 7.39221274852752690000e-001) (2, -1.50000000000000000000e+003) (3, 6.69931640625000000000e+002) (4, 8.74010559082031250000e+002) (5, -1.50000000000000000000e+003) (6, 6.59643432617187500000e+002) (7, 2.27615022659301760000e+000) (8, 4.65276489257812500000e+002) (9, -5.11030151367187500000e+002) (10, -1.50000000000000000000e+003) (11, 2.83453125000000000000e+002) (12, -1.27173901367187500000e+003) (13, -1.42619982910156250000e+003) (14, -4.78421173095703120000e+002) (15, -7.07784179687500000000e+002) (16, 1.44920642089843750000e+003) (17, 2.70314998626708980000e+001) (18, 9.67065063476562500000e+002) (19, 1.50000000000000000000e+003) (20, 2.25059108734130860000e+001) (21, -1.54429962158203120000e+002) (22, -1.50000000000000000000e+003) (23, -4.59236022949218750000e+002) (24, -1.50000000000000000000e+003) (25, 1.36404626464843750000e+003) (26, -5.25928833007812500000e+002) (27, 1.93140258789062500000e+002) (28, -2.03174076080322270000e+001) (29, 1.70185470581054690000e+002) (30, -8.94405395507812500000e+002) (31, 7.60336017608642580000e+000) (32, 9.19449645996093750000e+002) (33, 3.72153320312500000000e+002) (34, -3.96122924804687500000e+002) (35, 1.46796429157257080000e+000) (36, 4.02258014678955080000e+000) (37, -1.35898181152343750000e+003) (38, 8.68464565277099610000e+000) (39, 1.50000000000000000000e+003) (40, 1.69883560180664060000e+002) (41, -8.03299026489257810000e+001) (42, -1.49826513671875000000e+003) (43, -9.31399353027343750000e+002) (44, 1.50000000000000000000e+003) (45, -9.77981662750244140000e+000) (46, -9.89232971191406250000e+002) (47, 1.34007379412651060000e-001) (48, 1.50000000000000000000e+003) (49, 1.50000000000000000000e+003) (50, 7.76206054687500000000e+002) (51, 1.50000000000000000000e+003) (52, -4.49437316894531250000e+002) (53, -1.52379013061523440000e+002) (54, -1.20668655395507810000e+002) (55, -8.70724868774414060000e+001) (56, 9.52722835540771480000e+000) (57, -1.49991809082031250000e+003) (58, 2.83374071121215820000e-001) (59, -6.68902648925781250000e+002) (60, 9.22744079589843750000e+002) (61, -1.01102069091796870000e+003) (62, -1.49964709472656250000e+003) (63, 1.50000000000000000000e+003) (64, -1.61660873413085940000e+002) (65, 6.14649169921875000000e+002) (66, 4.81204193115234380000e+002) (67, 3.83155670166015620000e+002) (68, -1.43772570800781250000e+003) (69, 6.73100708007812500000e+002) (70, 1.50000000000000000000e+003) (71, 9.92104370117187500000e+002) (72, -1.38883471679687500000e+003) (73, 1.28787658691406250000e+003) (74, 5.31649597167968750000e+002) (75, 4.42916656494140620000e+002) (76, -1.49889257812500000000e+003) (77, 9.58939880371093750000e+002) (78, -1.02792773437500000000e+003) (79, -1.50000000000000000000e+003) (80, 2.92497955322265620000e+002) (81, 2.44398612976074220000e+001) (82, -3.48980316162109370000e+002) (83, -1.07418371582031250000e+003) (84, -1.43694116210937500000e+003) (85, -1.50000000000000000000e+003) (86, 5.19723510742187500000e+002) (87, 6.74739929199218750000e+002) (88, 2.57077270507812500000e+002) (89, -1.49593273925781250000e+003) (90, -3.79466094970703120000e+002) (91, 1.00285461425781250000e+003) (92, 1.49979528808593750000e+003) (93, -4.45454650878906250000e+002) (94, -2.60226409912109370000e+002) (95, -1.47503942871093750000e+003) (96, 5.92465087890625000000e+002) (97, 5.27398681640625000000e+002) (98, 1.49993627929687500000e+003) (99, -7.07228637695312500000e+002) (100, -1.49989440917968750000e+003) (101, -1.45841076660156250000e+003) (102, -1.41820544433593750000e+003) (103, 1.49964660644531250000e+003) (104, 1.49974877929687500000e+003) (105, 6.60468444824218750000e+001) (106, 1.49966040039062500000e+003) (107, -1.32485656738281250000e+003) (108, 1.50000000000000000000e+003) (109, -1.39664993286132810000e+002) (110, -5.88200561523437500000e+002) (111, 1.11312939453125000000e+003) (112, 1.45694384765625000000e+003) (113, 1.05739599609375000000e+003) (114, 1.49977758789062500000e+003) (115, 1.50000000000000000000e+003) (116, 1.50000000000000000000e+003) (117, -1.31054577636718750000e+003) (118, -1.50000000000000000000e+003) (119, -1.50000000000000000000e+003) (120, -2.90930847167968750000e+002) (121, -1.47289855957031250000e+003) (122, 1.50000000000000000000e+003) (123, 1.50000000000000000000e+003) (124, 1.17063647460937500000e+003) (125, -1.07972305297851560000e+002) (126, 3.89462921142578120000e+002) (127, 1.50000000000000000000e+003) (128, -1.21654335021972660000e+002) (129, 6.38839965820312500000e+002) (130, 7.69266433715820310000e+001) (131, -1.13264526367187500000e+003) (132, 1.52138690948486330000e+001) (133, 1.50000000000000000000e+003) (134, 1.50000000000000000000e+003) (135, 1.50000000000000000000e+003) (136, -6.61291320800781250000e+002) (137, 5.26602539062500000000e+002) (138, 1.50000000000000000000e+003) (139, -2.47653747558593750000e+002) (140, 1.49799523925781250000e+003) (141, -1.42219421386718750000e+003) (142, -2.51616516113281250000e+002) (143, 1.50000000000000000000e+003) (144, -1.22494926452636720000e+002) (145, 1.49169140625000000000e+003) (146, 1.50000000000000000000e+003) (147, 4.95984741210937500000e+002) (148, 1.50000000000000000000e+003) (149, 1.46593176269531250000e+003) (150, 5.78238098144531250000e+002) (151, 1.36652929687500000000e+003) (152, 1.50000000000000000000e+003) (153, -2.99059510231018070000e-001) (154, 1.50000000000000000000e+003) (155, 1.50000000000000000000e+003) (156, 1.50000000000000000000e+003) (157, 7.17875610351562500000e+002) (158, -1.50000000000000000000e+003) (159, 1.42070666503906250000e+003) (160, 1.50000000000000000000e+003) (161, 9.99222793579101560000e+001) (162, -1.50000000000000000000e+003) (163, -1.50000000000000000000e+003) (164, -1.50000000000000000000e+003) (165, -1.50000000000000000000e+003) (166, -1.50000000000000000000e+003) (167, -1.49590783691406250000e+003) (168, -9.66120422363281250000e+002) (169, -8.86320678710937500000e+002) (170, -7.16519958496093750000e+002) (171, 4.24168884277343750000e+002) (172, -1.26529797363281250000e+003) (173, -1.50000000000000000000e+003) (174, -1.50000000000000000000e+003) (175, -1.50000000000000000000e+003) (176, -1.50000000000000000000e+003) (177, -1.49636413574218750000e+003) (178, -3.48058044433593750000e+002) (179, 1.50000000000000000000e+003) (180, 1.50000000000000000000e+003) (181, 9.27052307128906250000e+002) (182, -1.50000000000000000000e+003) (183, -1.50000000000000000000e+003) (184, -1.50000000000000000000e+003) (185, -1.50000000000000000000e+003) (186, -1.50000000000000000000e+003) (187, -1.50000000000000000000e+003) (188, -1.50000000000000000000e+003) (189, -1.50000000000000000000e+003) (190, -1.50000000000000000000e+003) (191, -1.46325793457031250000e+003) (192, -1.50000000000000000000e+003) (193, -1.50000000000000000000e+003) (194, -1.49376599121093750000e+003) (195, -1.49663183593750000000e+003) (196, -1.50000000000000000000e+003) (197, -1.50000000000000000000e+003) (198, 1.50000000000000000000e+003) (199, 1.50000000000000000000e+003) (200, 1.50000000000000000000e+003) (201, 1.50000000000000000000e+003) (202, 1.50000000000000000000e+003) (203, 1.50000000000000000000e+003) (204, -8.70182250976562500000e+002) (205, -9.99560470581054690000e+001) (206, 1.48905957031250000000e+003) (207, 1.50000000000000000000e+003) (208, 1.41250500488281250000e+003) (209, 1.45452563476562500000e+003) (210, 5.22636657714843750000e+002) (211, 1.47913854980468750000e+003) (212, -1.46708081054687500000e+003) (213, -2.23814422607421870000e+002) (214, -1.50000000000000000000e+003) (215, -1.50000000000000000000e+003) (216, 1.50000000000000000000e+003) (217, 1.49389672851562500000e+003) (218, 1.50000000000000000000e+003) (219, 1.50000000000000000000e+003) (220, 1.50000000000000000000e+003) (221, 3.07055702209472660000e+001) (222, -1.08700134277343750000e+003) (223, -9.98593673706054690000e+001) (224, -4.05748626708984370000e+002) (225, 6.76587036132812500000e+002) (226, -1.44425195312500000000e+003) (227, -1.46372753906250000000e+003) (228, -1.49468737792968750000e+003) (229, -1.49782482910156250000e+003) (230, -1.35269897460937500000e+003) (231, -1.34296069335937500000e+003) (232, 6.07739334106445310000e+001) (233, -1.49940197753906250000e+003) (234, -8.45885467529296880000e+001) (235, -1.48888037109375000000e+003) (236, 1.50000000000000000000e+003) (237, 1.11604809761047360000e+000) (238, 1.50000000000000000000e+003) (239, 1.50000000000000000000e+003) (240, 1.50000000000000000000e+003) (241, 1.50000000000000000000e+003) (242, 9.03655151367187500000e+002) (243, 1.50000000000000000000e+003) (244, -2.25199584960937500000e+001) (245, 3.82845611572265620000e+002) (246, 9.16871520996093750000e+002) (247, 1.37492224121093750000e+003) (248, -9.37063415527343750000e+002) (249, -5.31018493652343750000e+002) (250, -1.50000000000000000000e+003) (251, -1.49286511230468750000e+003) (252, -1.50000000000000000000e+003) (253, -5.92142761230468750000e+002) (254, -4.52581939697265620000e+002) (255, -6.07688102722167970000e+001) (256, 1.50000000000000000000e+003) (257, 1.45314965820312500000e+003) (258, 1.50000000000000000000e+003) (259, 1.50000000000000000000e+003) (260, 1.43128609657287600000e+000) (261, 1.50000000000000000000e+003) (262, 1.50000000000000000000e+003) (263, 1.50000000000000000000e+003) (264, 1.50000000000000000000e+003) (265, 1.50000000000000000000e+003) (266, 1.50000000000000000000e+003) (267, 1.50000000000000000000e+003) (268, 1.50000000000000000000e+003) (269, 7.66881286621093750000e+002) (270, -2.74995975494384770000e+001) (271, 5.92768516540527340000e+001) (272, 1.50000000000000000000e+003) (273, 1.50000000000000000000e+003) (274, 1.50000000000000000000e+003) (275, 1.50000000000000000000e+003) (276, 1.50000000000000000000e+003) (277, 5.41036188602447510000e-001) (278, 4.38501328229904170000e-001) (279, 1.22575330734252930000e+000) (280, 4.44467037916183470000e-001) (0, 2.16092697143554690000e+002) (1, -7.44614362716674800000e-001) (2, -1.50000000000000000000e+003) (3, -3.97938385009765620000e+002) (4, -8.14597839355468750000e+002) (5, -1.50000000000000000000e+003) (6, 6.56182617187500000000e+002) (7, 3.95632803440093990000e-001) (8, -9.25869323730468750000e+002) (9, -5.14168518066406250000e+002) (10, -1.50000000000000000000e+003) (11, -9.89443725585937500000e+002) (12, -1.49792358398437500000e+003) (13, -1.42619982910156250000e+003) (14, -1.41735388183593750000e+003) (15, -7.48246582031250000000e+002) (16, 1.50000000000000000000e+003) (17, 2.84914646148681640000e+001) (18, 1.50000000000000000000e+003) (19, 1.50000000000000000000e+003) (20, 2.39910717010498050000e+001) (21, 1.49995166015625000000e+003) (22, -1.50000000000000000000e+003) (23, 8.93775512695312500000e+002) (24, -1.50000000000000000000e+003) (25, 1.50000000000000000000e+003) (26, -5.34638183593750000000e+002) (27, 3.13115844726562500000e+002) (28, -2.14882278442382810000e+001) (29, -1.36131057739257810000e+002) (30, -9.06875610351562500000e+002) (31, 5.08052158355712890000e+000) (32, 9.73693481445312500000e+002) (33, 3.74054504394531250000e+002) (34, -4.04073486328125000000e+002) (35, -1.75310039520263670000e+000) (36, -2.21182361245155330000e-001) (37, -1.35898181152343750000e+003) (38, 6.75371265411376950000e+000) (39, 1.50000000000000000000e+003) (40, 1.44230871582031250000e+003) (41, 1.06559280395507810000e+002) (42, -1.49826513671875000000e+003) (43, 9.85007995605468750000e+002) (44, 1.50000000000000000000e+003) (45, 1.02347631454467770000e+001) (46, -9.95145874023437500000e+002) (47, 3.93191367387771610000e-001) (48, 1.50000000000000000000e+003) (49, 1.50000000000000000000e+003) (50, 7.90374511718750000000e+002) (51, 1.50000000000000000000e+003) (52, 6.52022888183593750000e+002) (53, -8.33572570800781250000e+002) (54, -1.24448455810546870000e+002) (55, -3.63476715087890630000e+001) (56, -2.74864268302917480000e+000) (57, -1.49991809082031250000e+003) (58, 4.47955757379531860000e-001) (59, 1.17398498535156250000e+003) (60, -8.30882263183593750000e+001) (61, -1.01102069091796870000e+003) (62, -1.49964709472656250000e+003) (63, 1.50000000000000000000e+003) (64, -2.43814453125000000000e+002) (65, 1.42683752441406250000e+003) (66, -1.47149584960937500000e+003) (67, 3.83155670166015620000e+002) (68, 2.14414932250976560000e+002) (69, 1.48220166015625000000e+003) (70, 1.50000000000000000000e+003) (71, 4.65269683837890620000e+002) (72, -1.38883471679687500000e+003) (73, 9.17846107482910160000e+000) (74, -8.71719604492187500000e+002) (75, 3.35846832275390620000e+002) (76, -1.49889257812500000000e+003) (77, -4.73740417480468750000e+002) (78, -1.43489001464843750000e+003) (79, -1.50000000000000000000e+003) (80, -1.44164343261718750000e+003) (81, 2.15856063842773440000e+002) (82, -7.05911071777343750000e+002) (83, -4.86331268310546870000e+002) (84, -1.43694116210937500000e+003) (85, -1.50000000000000000000e+003) (86, 4.50745300292968750000e+002) (87, 5.30929260253906250000e+002) (88, -8.32946655273437500000e+002) (89, -1.49593273925781250000e+003) (90, -1.29570410156250000000e+003) (91, -7.61844787597656250000e+001) (92, -6.14231323242187500000e+002) (93, -7.52261169433593750000e+002) (94, -6.03327697753906250000e+002) (95, -4.67329986572265620000e+002) (96, -1.16633316040039060000e+002) (97, 3.73000671386718750000e+002) (98, 1.49997363281250000000e+003) (99, -1.49197412109375000000e+003) (100, -1.49989440917968750000e+003) (101, -1.45841076660156250000e+003) (102, -9.94279357910156250000e+002) (103, 1.49964660644531250000e+003) (104, 1.49974877929687500000e+003) (105, 1.88042617797851560000e+002) (106, 1.49966040039062500000e+003) (107, -1.50000000000000000000e+003) (108, 1.50000000000000000000e+003) (109, 1.01122222900390620000e+003) (110, -6.59795471191406250000e+002) (111, 1.49820751953125000000e+003) (112, 1.45694384765625000000e+003) (113, 1.43681628417968750000e+003) (114, 1.49977758789062500000e+003) (115, 1.50000000000000000000e+003) (116, 1.50000000000000000000e+003) (117, -1.31562731933593750000e+003) (118, -1.50000000000000000000e+003) (119, -1.50000000000000000000e+003) (120, -4.87660400390625000000e+002) (121, -1.47289855957031250000e+003) (122, 1.50000000000000000000e+003) (123, 1.50000000000000000000e+003) (124, 1.49973352050781250000e+003) (125, 1.49993066406250000000e+003) (126, 3.89462921142578120000e+002) (127, 1.50000000000000000000e+003) (128, 1.70149841308593750000e+002) (129, 2.94874786376953120000e+002) (130, 2.62987304687500000000e+002) (131, 9.87885284423828130000e+001) (132, 2.27461471557617190000e+001) (133, 1.50000000000000000000e+003) (134, 1.50000000000000000000e+003) (135, 1.50000000000000000000e+003) (136, -6.72641052246093750000e+002) (137, 8.79576477050781250000e+002) (138, 1.50000000000000000000e+003) (139, -2.51028182983398440000e+002) (140, 1.49799523925781250000e+003) (141, -1.41046166992187500000e+003) (142, -3.06785400390625000000e+002) (143, 1.50000000000000000000e+003) (144, -5.27264831542968750000e+002) (145, 1.21300744628906250000e+003) (146, 1.50000000000000000000e+003) (147, 1.49536987304687500000e+003) (148, 1.50000000000000000000e+003) (149, 1.46593176269531250000e+003) (150, -3.54416076660156250000e+002) (151, 1.36652929687500000000e+003) (152, 1.50000000000000000000e+003) (153, 1.33158979415893550000e+001) (154, 1.50000000000000000000e+003) (155, 1.50000000000000000000e+003) (156, 1.50000000000000000000e+003) (157, -4.74052093505859370000e+002) (158, -1.50000000000000000000e+003) (159, 1.42164355468750000000e+003) (160, 1.50000000000000000000e+003) (161, -1.20757225036621090000e+002) (162, -1.50000000000000000000e+003) (163, -1.50000000000000000000e+003) (164, -1.50000000000000000000e+003) (165, -1.50000000000000000000e+003) (166, -1.50000000000000000000e+003) (167, -1.47777514648437500000e+003) (168, -9.66120422363281250000e+002) (169, -8.86320678710937500000e+002) (170, -2.87127899169921870000e+002) (171, 9.38468200683593750000e+002) (172, -1.26529797363281250000e+003) (173, -1.50000000000000000000e+003) (174, -1.50000000000000000000e+003) (175, -1.50000000000000000000e+003) (176, -1.50000000000000000000e+003) (177, -1.49636413574218750000e+003) (178, 2.06654235839843750000e+002) (179, 1.50000000000000000000e+003) (180, 1.50000000000000000000e+003) (181, 9.27052307128906250000e+002) (182, -1.50000000000000000000e+003) (183, -1.50000000000000000000e+003) (184, -1.50000000000000000000e+003) (185, -1.50000000000000000000e+003) (186, -1.50000000000000000000e+003) (187, -1.50000000000000000000e+003) (188, -1.50000000000000000000e+003) (189, -1.50000000000000000000e+003) (190, -1.50000000000000000000e+003) (191, -1.46325793457031250000e+003) (192, -1.50000000000000000000e+003) (193, -1.50000000000000000000e+003) (194, -1.49376599121093750000e+003) (195, -1.49775354003906250000e+003) (196, -1.50000000000000000000e+003) (197, -1.50000000000000000000e+003) (198, 1.50000000000000000000e+003) (199, 1.50000000000000000000e+003) (200, 1.50000000000000000000e+003) (201, 1.50000000000000000000e+003) (202, 1.50000000000000000000e+003) (203, 1.50000000000000000000e+003) (204, -7.20146894454956050000e+000) (205, 9.91462158203125000000e+002) (206, 1.48905957031250000000e+003) (207, 1.50000000000000000000e+003) (208, 1.37772778320312500000e+003) (209, 1.45452563476562500000e+003) (210, -3.63025268554687500000e+002) (211, 1.47913854980468750000e+003) (212, -1.46708081054687500000e+003) (213, -2.23814422607421870000e+002) (214, -1.50000000000000000000e+003) (215, -1.50000000000000000000e+003) (216, 1.50000000000000000000e+003) (217, 1.49389672851562500000e+003) (218, 1.50000000000000000000e+003) (219, 1.50000000000000000000e+003) (220, 1.50000000000000000000e+003) (221, 1.08726882934570310000e+002) (222, -1.18320153808593750000e+003) (223, -1.25089439392089840000e+002) (224, -2.14193572998046870000e+002) (225, 1.40377526855468750000e+003) (226, -1.44425195312500000000e+003) (227, -1.46372753906250000000e+003) (228, -1.49776525878906250000e+003) (229, -1.49907043457031250000e+003) (230, -1.34566552734375000000e+003) (231, -1.49764672851562500000e+003) (232, 4.29877662658691410000e+001) (233, -1.49940197753906250000e+003) (234, -8.60094833374023440000e+001) (235, -1.48888037109375000000e+003) (236, 1.50000000000000000000e+003) (237, 5.65208375453948970000e-001) (238, 1.50000000000000000000e+003) (239, 1.50000000000000000000e+003) (240, 1.50000000000000000000e+003) (241, 1.50000000000000000000e+003) (242, 9.03655151367187500000e+002) (243, 1.50000000000000000000e+003) (244, -3.89878501892089840000e+001) (245, -1.49788232421875000000e+003) (246, -1.49966955566406250000e+003) (247, -8.69092468261718750000e+002) (248, -1.25191137695312500000e+003) (249, -5.65479248046875000000e+002) (250, -1.50000000000000000000e+003) (251, -1.49286511230468750000e+003) (252, -1.50000000000000000000e+003) (253, -6.21492797851562500000e+002) (254, 9.91392395019531250000e+002) (255, -6.52589569091796880000e+001) (256, 1.50000000000000000000e+003) (257, 1.46260656738281250000e+003) (258, 1.50000000000000000000e+003) (259, 1.50000000000000000000e+003) (260, 5.72865188121795650000e-001) (261, 1.50000000000000000000e+003) (262, 1.50000000000000000000e+003) (263, 1.50000000000000000000e+003) (264, 1.50000000000000000000e+003) (265, 1.50000000000000000000e+003) (266, 1.50000000000000000000e+003) (267, 1.50000000000000000000e+003) (268, 1.50000000000000000000e+003) (269, 7.66857482910156250000e+002) (270, -2.82531528472900390000e+001) (271, 6.55861434936523440000e+001) (272, 1.50000000000000000000e+003) (273, 1.50000000000000000000e+003) (274, 1.50000000000000000000e+003) (275, 1.50000000000000000000e+003) (276, 1.50000000000000000000e+003) (277, -1.44929885864257810000e-001) (278, 9.39279496669769290000e-001) (279, -5.33719778060913090000e-001) (280, -5.23256540298461910000e-001) (0, -1.54213256835937500000e+002) (1, -7.72380709648132320000e-001) (2, 1.50000000000000000000e+003) (3, 6.91724548339843750000e+002) (4, 1.49987377929687500000e+003) (5, 1.50000000000000000000e+003) (6, -4.64159576416015620000e+002) (7, -4.85741406679153440000e-001) (8, 1.49999658203125000000e+003) (9, 7.39000061035156250000e+002) (10, 1.50000000000000000000e+003) (11, 1.42021191406250000000e+003) (12, 1.49833142089843750000e+003) (13, 1.46900939941406250000e+003) (14, 1.47245068359375000000e+003) (15, 1.27195764160156250000e+003) (16, -9.88880981445312500000e+002) (17, -2.30126399993896480000e+001) (18, -1.48519201660156250000e+003) (19, -1.50000000000000000000e+003) (20, -3.43832707405090330000e+000) (21, -1.48089892578125000000e+003) (22, 1.50000000000000000000e+003) (23, -3.94869689941406250000e+002) (24, 1.50000000000000000000e+003) (25, -1.28753503417968750000e+003) (26, 7.51661926269531250000e+002) (27, -7.54991683959960940000e+001) (28, 3.36394348144531250000e+001) (29, 2.01774414062500000000e+002) (30, 1.32771179199218750000e+003) (31, -3.72470438480377200000e-001) (32, -5.92144897460937500000e+002) (33, -2.23117355346679690000e+002) (34, 1.02639306640625000000e+003) (35, 7.18381047248840330000e-001) (36, 5.19829690456390380000e-001) (37, 1.46317053222656250000e+003) (38, -5.71491336822509770000e+000) (39, -1.50000000000000000000e+003) (40, -7.43764770507812500000e+002) (41, -6.72043609619140630000e+001) (42, 1.50000000000000000000e+003) (43, 2.11154159545898440000e+002) (44, -1.50000000000000000000e+003) (45, 4.96151834726333620000e-001) (46, 1.37829724121093750000e+003) (47, -2.64409154653549190000e-001) (48, -1.50000000000000000000e+003) (49, -1.50000000000000000000e+003) (50, -5.58539428710937500000e+002) (51, -1.50000000000000000000e+003) (52, -4.36458160400390620000e+002) (53, 1.20172155761718750000e+003) (54, 3.33651733398437500000e+002) (55, 1.33255401611328120000e+002) (56, 4.26711654663085940000e+000) (57, 1.49995556640625000000e+003) (58, -5.61486303806304930000e-001) (59, -5.13783264160156250000e+002) (60, 6.15353393554687500000e+001) (61, 1.16275219726562500000e+003) (62, 1.49998339843750000000e+003) (63, -1.50000000000000000000e+003) (64, 6.09574340820312500000e+002) (65, -4.45757904052734370000e+002) (66, 1.49953039550781250000e+003) (67, 8.42453842163085940000e+001) (68, 7.54829833984375000000e+002) (69, -9.13888366699218750000e+002) (70, -1.29429284667968750000e+003) (71, 1.17926864624023440000e+002) (72, 1.42328991699218750000e+003) (73, 1.14935253906250000000e+003) (74, 1.08510388183593750000e+003) (75, -9.08378448486328130000e+001) (76, 1.49921972656250000000e+003) (77, 9.13112670898437500000e+002) (78, 1.47811560058593750000e+003) (79, 1.50000000000000000000e+003) (80, 1.44446569824218750000e+003) (81, -1.47483886718750000000e+002) (82, 1.49900659179687500000e+003) (83, 1.11719177246093750000e+003) (84, 1.49999511718750000000e+003) (85, 1.50000000000000000000e+003) (86, -3.50978668212890620000e+002) (87, 2.57296539306640620000e+002) (88, 1.49899609375000000000e+003) (89, 1.49986169433593750000e+003) (90, 1.50000000000000000000e+003) (91, 1.71530166625976560000e+002) (92, 7.58362304687500000000e+002) (93, 1.40547863769531250000e+003) (94, 6.00355041503906250000e+002) (95, 1.48587866210937500000e+003) (96, 3.50254516601562500000e+002) (97, -2.43347793579101560000e+002) (98, -1.49982226562500000000e+003) (99, 1.49987841796875000000e+003) (100, 1.50000000000000000000e+003) (101, 1.48578466796875000000e+003) (102, 1.49944458007812500000e+003) (103, -1.49758398437500000000e+003) (104, -1.49949304199218750000e+003) (105, 1.99282226562500000000e+002) (106, -1.43366540527343750000e+003) (107, 1.50000000000000000000e+003) (108, -1.50000000000000000000e+003) (109, 1.19206260681152340000e+002) (110, 1.28174279785156250000e+003) (111, -1.49679125976562500000e+003) (112, -1.42377416992187500000e+003) (113, -1.09837280273437500000e+003) (114, -1.49142712402343750000e+003) (115, -1.50000000000000000000e+003) (116, -1.50000000000000000000e+003) (117, 1.49207019042968750000e+003) (118, 1.50000000000000000000e+003) (119, 1.50000000000000000000e+003) (120, 6.82527770996093750000e+002) (121, 1.50000000000000000000e+003) (122, -1.50000000000000000000e+003) (123, -1.50000000000000000000e+003) (124, -1.33623095703125000000e+003) (125, -1.49950952148437500000e+003) (126, -1.81790496826171870000e+002) (127, -1.50000000000000000000e+003) (128, 9.47153503417968750000e+002) (129, 7.24442626953125000000e+002) (130, -1.20150489807128910000e+002) (131, 1.12994299316406250000e+003) (132, 9.77011680603027340000e+000) (133, -1.50000000000000000000e+003) (134, -1.50000000000000000000e+003) (135, -1.50000000000000000000e+003) (136, 1.04331750488281250000e+003) (137, -2.20681015014648440000e+002) (138, -1.50000000000000000000e+003) (139, 5.01994445800781250000e+002) (140, -1.48536950683593750000e+003) (141, 1.50000000000000000000e+003) (142, 4.46940795898437500000e+002) (143, -1.50000000000000000000e+003) (144, 1.49982971191406250000e+003) (145, 2.88136749267578130000e+001) (146, -1.50000000000000000000e+003) (147, 3.13327751159667970000e+001) (148, -1.50000000000000000000e+003) (149, -1.41134277343750000000e+003) (150, 1.38854199218750000000e+003) (151, -1.27838134765625000000e+003) (152, -1.50000000000000000000e+003) (153, -2.94002699851989750000e+000) (154, -1.50000000000000000000e+003) (155, -1.47889855957031250000e+003) (156, -1.50000000000000000000e+003) (157, 1.24289538574218750000e+003) (158, 1.50000000000000000000e+003) (159, -1.36314074707031250000e+003) (160, -1.50000000000000000000e+003) (161, 1.79562438964843750000e+002) (162, 1.50000000000000000000e+003) (163, 1.50000000000000000000e+003) (164, 1.50000000000000000000e+003) (165, 1.50000000000000000000e+003) (166, 1.50000000000000000000e+003) (167, 1.49999804687500000000e+003) (168, 1.41005590820312500000e+003) (169, 1.15336120605468750000e+003) (170, 8.58692077636718750000e+002) (171, 5.24082794189453130000e+001) (172, 1.33412377929687500000e+003) (173, 1.50000000000000000000e+003) (174, 1.50000000000000000000e+003) (175, 1.50000000000000000000e+003) (176, 1.50000000000000000000e+003) (177, 1.49998828125000000000e+003) (178, 1.01225085449218750000e+003) (179, -1.50000000000000000000e+003) (180, -1.50000000000000000000e+003) (181, -4.13157165527343750000e+002) (182, 1.50000000000000000000e+003) (183, 1.50000000000000000000e+003) (184, 1.50000000000000000000e+003) (185, 1.50000000000000000000e+003) (186, 1.50000000000000000000e+003) (187, 1.50000000000000000000e+003) (188, 1.50000000000000000000e+003) (189, 1.50000000000000000000e+003) (190, 1.50000000000000000000e+003) (191, 1.48740747070312500000e+003) (192, 1.50000000000000000000e+003) (193, 1.50000000000000000000e+003) (194, 1.50000000000000000000e+003) (195, 1.49987219238281250000e+003) (196, 1.50000000000000000000e+003) (197, 1.50000000000000000000e+003) (198, -1.50000000000000000000e+003) (199, -1.50000000000000000000e+003) (200, -1.50000000000000000000e+003) (201, -1.50000000000000000000e+003) (202, -1.50000000000000000000e+003) (203, -1.43576989746093750000e+003) (204, 5.01899200439453120000e+002) (205, -5.52534545898437500000e+002) (206, -1.47441516113281250000e+003) (207, -1.50000000000000000000e+003) (208, -9.95450210571289060000e+001) (209, -1.41894494628906250000e+003) (210, 1.50000000000000000000e+003) (211, -1.45375476074218750000e+003) (212, 1.49999719238281250000e+003) (213, 1.16390478515625000000e+003) (214, 1.50000000000000000000e+003) (215, 1.50000000000000000000e+003) (216, -1.50000000000000000000e+003) (217, -1.48326135253906250000e+003) (218, -1.50000000000000000000e+003) (219, -1.50000000000000000000e+003) (220, -1.50000000000000000000e+003) (221, 4.01696624755859380000e+001) (222, 1.49845910644531250000e+003) (223, 1.74582931518554690000e+002) (224, 4.40841217041015620000e+002) (225, -9.79770996093750000000e+002) (226, 1.45792773437500000000e+003) (227, 1.47641503906250000000e+003) (228, 1.49691137695312500000e+003) (229, 1.49874560546875000000e+003) (230, 1.49957836914062500000e+003) (231, 1.49872937011718750000e+003) (232, -1.62251720428466800000e+001) (233, 1.49998889160156250000e+003) (234, 1.31728042602539060000e+002) (235, 1.49650610351562500000e+003) (236, -1.50000000000000000000e+003) (237, -8.50712060928344730000e-001) (238, -1.50000000000000000000e+003) (239, -1.50000000000000000000e+003) (240, -1.50000000000000000000e+003) (241, -1.50000000000000000000e+003) (242, -5.45978210449218750000e+002) (243, -1.50000000000000000000e+003) (244, 5.74700355529785160000e+001) (245, 1.49850183105468750000e+003) (246, 1.49978063964843750000e+003) (247, 1.29975842285156250000e+003) (248, 1.49999548339843750000e+003) (249, 8.05853393554687500000e+002) (250, 1.50000000000000000000e+003) (251, 1.49623864746093750000e+003) (252, 1.50000000000000000000e+003) (253, 8.77624572753906250000e+002) (254, -1.58943420410156250000e+002) (255, 9.02014160156250000000e+001) (256, -1.50000000000000000000e+003) (257, -1.20553796386718750000e+003) (258, -1.50000000000000000000e+003) (259, -1.50000000000000000000e+003) (260, -9.77419495582580570000e-001) (261, -1.50000000000000000000e+003) (262, -1.50000000000000000000e+003) (263, -1.50000000000000000000e+003) (264, -1.50000000000000000000e+003) (265, -1.50000000000000000000e+003) (266, -1.50000000000000000000e+003) (267, -1.49939843750000000000e+003) (268, -1.49421716308593750000e+003) (269, -5.42755493164062500000e+002) (270, 4.08657264709472660000e+001) (271, -4.66679763793945310000e+001) (272, -1.49994873046875000000e+003) (273, -1.50000000000000000000e+003) (274, -1.49995202636718750000e+003) (275, -1.50000000000000000000e+003) (276, -1.50000000000000000000e+003) (277, -1.48553356528282170000e-001) (278, -1.84983444213867190000e+000) (279, 1.32944900542497630000e-002) (280, -1.00692546367645260000e+000) (0, 2.17067459106445310000e+002) (1, 5.74186205863952640000e-001) (2, -1.50000000000000000000e+003) (3, -4.43040588378906250000e+002) (4, -1.10861010742187500000e+003) (5, -1.50000000000000000000e+003) (6, 6.58284423828125000000e+002) (7, 2.10104823112487790000e+000) (8, -1.27547106933593750000e+003) (9, -5.13015319824218750000e+002) (10, -1.50000000000000000000e+003) (11, -9.86649841308593750000e+002) (12, -1.49500024414062500000e+003) (13, -1.42619982910156250000e+003) (14, -1.41735522460937500000e+003) (15, -7.46726806640625000000e+002) (16, 1.50000000000000000000e+003) (17, 2.98400020599365230000e+001) (18, 1.50000000000000000000e+003) (19, 1.50000000000000000000e+003) (20, 6.90589294433593750000e+001) (21, 1.49995166015625000000e+003) (22, -1.50000000000000000000e+003) (23, 8.93775207519531250000e+002) (24, -1.50000000000000000000e+003) (25, 1.50000000000000000000e+003) (26, -5.33414733886718750000e+002) (27, 4.26188659667968750000e+002) (28, -2.10832920074462890000e+001) (29, -1.33162261962890620000e+002) (30, -9.06152099609375000000e+002) (31, 8.66672229766845700000e+000) (32, 1.02453186035156250000e+003) (33, 3.81680572509765630000e+002) (34, -4.04198242187500000000e+002) (35, -7.10714817047119140000e-001) (36, 6.56536102294921880000e-001) (37, -1.35898181152343750000e+003) (38, 7.32014369964599610000e+000) (39, 1.50000000000000000000e+003) (40, 1.44230871582031250000e+003) (41, 1.07250373840332030000e+002) (42, -1.49826513671875000000e+003) (43, 9.85990295410156250000e+002) (44, 1.50000000000000000000e+003) (45, 1.07183942794799800000e+001) (46, -9.93986999511718750000e+002) (47, 6.04412317276000980000e-001) (48, 1.50000000000000000000e+003) (49, 1.50000000000000000000e+003) (50, 7.88730651855468750000e+002) (51, 1.50000000000000000000e+003) (52, 6.73750305175781250000e+002) (53, -8.33202575683593750000e+002) (54, -1.28290603637695310000e+002) (55, 4.51509475708007810000e+001) (56, -1.82126402854919430000e+000) (57, -1.49991809082031250000e+003) (58, 9.80231046676635740000e-001) (59, 1.17466149902343750000e+003) (60, -8.07150115966796880000e+001) (61, -1.01102069091796870000e+003) (62, -1.49964709472656250000e+003) (63, 1.50000000000000000000e+003) (64, -2.32228881835937500000e+002) (65, 1.46754394531250000000e+003) (66, -1.47149584960937500000e+003) (67, 3.83155670166015620000e+002) (68, 2.18501785278320310000e+002) (69, 1.48220166015625000000e+003) (70, 1.50000000000000000000e+003) (71, 3.93804870605468750000e+002) (72, -1.38883471679687500000e+003) (73, -6.52389335632324220000e+000) (74, -8.71719604492187500000e+002) (75, 3.38861602783203120000e+002) (76, -1.49889257812500000000e+003) (77, -3.53018585205078120000e+002) (78, -1.42444262695312500000e+003) (79, -1.50000000000000000000e+003) (80, -1.49716418457031250000e+003) (81, 2.18022445678710940000e+002) (82, -7.03145385742187500000e+002) (83, -4.83821166992187500000e+002) (84, -1.43694116210937500000e+003) (85, -1.50000000000000000000e+003) (86, 4.31534179687500000000e+002) (87, 4.46975921630859370000e+002) (88, -8.21759643554687500000e+002) (89, -1.49593273925781250000e+003) (90, -1.00138122558593750000e+003) (91, -1.18653923034667970000e+002) (92, -8.58296997070312500000e+002) (93, -7.55724121093750000000e+002) (94, -7.44666503906250000000e+002) (95, -4.67329986572265620000e+002) (96, -2.87306671142578120000e+002) (97, 5.57156906127929690000e+001) (98, 1.49993627929687500000e+003) (99, -1.49197509765625000000e+003) (100, -1.49989440917968750000e+003) (101, -1.45841076660156250000e+003) (102, -9.92798156738281250000e+002) (103, 1.49964660644531250000e+003) (104, 1.49974877929687500000e+003) (105, 2.75618408203125000000e+002) (106, 1.49966040039062500000e+003) (107, -1.50000000000000000000e+003) (108, 1.50000000000000000000e+003) (109, 8.40715515136718750000e+002) (110, -6.62795715332031250000e+002) (111, 1.49820751953125000000e+003) (112, 1.45694384765625000000e+003) (113, 1.43162438964843750000e+003) (114, 1.49977758789062500000e+003) (115, 1.50000000000000000000e+003) (116, 1.50000000000000000000e+003) (117, -1.31533166503906250000e+003) (118, -1.50000000000000000000e+003) (119, -1.50000000000000000000e+003) (120, -5.80593261718750000000e+002) (121, -1.47289855957031250000e+003) (122, 1.50000000000000000000e+003) (123, 1.50000000000000000000e+003) (124, 1.49973352050781250000e+003) (125, 1.49993066406250000000e+003) (126, 3.89462921142578120000e+002) (127, 1.50000000000000000000e+003) (128, 1.63312316894531250000e+002) (129, 4.86062988281250000000e+002) (130, 4.35475616455078120000e+002) (131, 8.19558486938476560000e+001) (132, 1.34287471771240230000e+001) (133, 1.50000000000000000000e+003) (134, 1.50000000000000000000e+003) (135, 1.50000000000000000000e+003) (136, -6.77416198730468750000e+002) (137, 8.80257263183593750000e+002) (138, 1.50000000000000000000e+003) (139, -2.51032363891601560000e+002) (140, 1.49799523925781250000e+003) (141, -1.42219421386718750000e+003) (142, -3.10516540527343750000e+002) (143, 1.50000000000000000000e+003) (144, -5.27828125000000000000e+002) (145, 1.36625231933593750000e+003) (146, 1.50000000000000000000e+003) (147, 1.49536987304687500000e+003) (148, 1.50000000000000000000e+003) (149, 1.46593176269531250000e+003) (150, -3.75697570800781250000e+002) (151, 1.36652929687500000000e+003) (152, 1.50000000000000000000e+003) (153, 1.20108661651611330000e+001) (154, 1.50000000000000000000e+003) (155, 1.50000000000000000000e+003) (156, 1.50000000000000000000e+003) (157, -5.49569824218750000000e+002) (158, -1.50000000000000000000e+003) (159, 1.42070666503906250000e+003) (160, 1.50000000000000000000e+003) (161, -1.19549430847167970000e+002) (162, -1.50000000000000000000e+003) (163, -1.50000000000000000000e+003) (164, -1.50000000000000000000e+003) (165, -1.50000000000000000000e+003) (166, -1.50000000000000000000e+003) (167, -1.49590783691406250000e+003) (168, -8.72464538574218750000e+002) (169, -8.86320678710937500000e+002) (170, -3.24465118408203120000e+002) (171, 9.38468200683593750000e+002) (172, -1.26529797363281250000e+003) (173, -1.50000000000000000000e+003) (174, -1.50000000000000000000e+003) (175, -1.50000000000000000000e+003) (176, -1.50000000000000000000e+003) (177, -1.49636413574218750000e+003) (178, -1.99242340087890620000e+002) (179, 1.50000000000000000000e+003) (180, 1.50000000000000000000e+003) (181, 9.27052307128906250000e+002) (182, -1.50000000000000000000e+003) (183, -1.50000000000000000000e+003) (184, -1.50000000000000000000e+003) (185, -1.50000000000000000000e+003) (186, -1.50000000000000000000e+003) (187, -1.50000000000000000000e+003) (188, -1.50000000000000000000e+003) (189, -1.50000000000000000000e+003) (190, -1.50000000000000000000e+003) (191, -1.46325793457031250000e+003) (192, -1.50000000000000000000e+003) (193, -1.50000000000000000000e+003) (194, -1.49376599121093750000e+003) (195, -1.49663183593750000000e+003) (196, -1.50000000000000000000e+003) (197, -1.50000000000000000000e+003) (198, 1.50000000000000000000e+003) (199, 1.50000000000000000000e+003) (200, 1.50000000000000000000e+003) (201, 1.50000000000000000000e+003) (202, 1.50000000000000000000e+003) (203, 1.50000000000000000000e+003) (204, 3.44166442871093750000e+002) (205, 9.91462158203125000000e+002) (206, 1.48905957031250000000e+003) (207, 1.50000000000000000000e+003) (208, 1.37857250976562500000e+003) (209, 1.45452563476562500000e+003) (210, -8.38568969726562500000e+002) (211, 1.47913854980468750000e+003) (212, -1.46708081054687500000e+003) (213, -2.23814422607421870000e+002) (214, -1.50000000000000000000e+003) (215, -1.50000000000000000000e+003) (216, 1.50000000000000000000e+003) (217, 1.49389672851562500000e+003) (218, 1.50000000000000000000e+003) (219, 1.50000000000000000000e+003) (220, 1.50000000000000000000e+003) (221, 2.20292449951171870000e+002) (222, -1.18102246093750000000e+003) (223, -1.23637817382812500000e+002) (224, -2.12691497802734380000e+002) (225, 1.40595336914062500000e+003) (226, -1.44425195312500000000e+003) (227, -1.46372753906250000000e+003) (228, -1.49468737792968750000e+003) (229, -1.49782482910156250000e+003) (230, -1.33905053710937500000e+003) (231, -1.49764672851562500000e+003) (232, 4.49131546020507810000e+001) (233, -1.49940197753906250000e+003) (234, -9.54482498168945310000e+001) (235, -1.48888037109375000000e+003) (236, 1.50000000000000000000e+003) (237, 1.01177227497100830000e+000) (238, 1.50000000000000000000e+003) (239, 1.50000000000000000000e+003) (240, 1.50000000000000000000e+003) (241, 1.50000000000000000000e+003) (242, 9.03655151367187500000e+002) (243, 1.50000000000000000000e+003) (244, -3.86858634948730470000e+001) (245, -1.49788232421875000000e+003) (246, -1.49966979980468750000e+003) (247, -1.01030181884765620000e+003) (248, -1.27163684082031250000e+003) (249, -5.52986938476562500000e+002) (250, -1.50000000000000000000e+003) (251, -1.49286511230468750000e+003) (252, -1.50000000000000000000e+003) (253, -6.21196655273437500000e+002) (254, 9.91720825195312500000e+002) (255, -6.48611450195312500000e+001) (256, 